svm_type c_svc
kernel_type linear
nr_class 2
total_sv 129
rho 0.43660638576440258
label 1 -1
nr_sv 54 75
SV
0.0065623957238547291 1:0 2:0 3:0 4:0 5:0 6:0 7:0 8:0 9:0 10:0 11:0 12:0 13:0 14:0 15:0 16:0 17:0 18:0 19:0 20:0 21:0 22:0 23:0 24:1 25:0 26:0 27:0 28:0 29:0 30:0 31:0 32:0 33:0 34:0 35:0 36:0 37:1 38:0 39:0 40:0 41:0 42:0 43:0 44:0 45:0 46:0 47:0 48:0 49:0 50:0 51:0 52:0 53:0 54:0 55:1 56:0 57:0 58:0 59:0 60:0 61:0 62:0 63:0 64:0 65:0 66:0 67:0 68:1 69:0 70:0 71:0 72:0 73:0 74:0 75:0 76:0 77:0 78:0 79:1 80:1 81:0 82:0 83:0 84:0 85:0 86:0 87:0 88:0 89:1 90:0 91:0 92:0 93:0 94:0 95:0 96:0 97:0 98:0 99:0 100:0 101:1 102:1 103:0 104:0 105:0 106:0 107:0 108:0 109:0 110:0 111:0 112:0 113:1 114:1 115:0 116:0 117:0 118:0 119:0 120:0 121:0 122:0 123:0 124:0 125:1 126:0 127:0 128:0 129:0 130:0 131:0 132:0 133:0 134:1 135:0 136:0 137:0 138:0 139:0 140:0 141:0 142:1 143:0 144:0 145:0 146:0 147:0 148:0 149:1 150:0 151:0 152:0 153:0 154:0 155:0 156:0 157:0 158:0 159:0 160:0 161:0 162:0 163:0 164:0 165:0 166:0 167:0 168:0 169:0 170:1 171:0 172:0 173:3 174:0 175:0 176:0 177:0 178:0 179:0 180:0 181:0 182:0 183:0 184:0 185:0 186:0 187:0 188:0 189:0 190:0 191:0 192:0 193:0 194:0 195:0 196:0 197:0 198:2 199:0 200:0 201:0 202:0 203:0 204:0 205:0 206:0 207:0 208:0 209:0 210:0 211:0 212:0 213:0 214:0 215:0 216:0 217:0 218:0 219:0 220:0 221:1 222:0 223:0 224:0 225:0 226:0 227:0 228:0 229:0 230:0 231:0 232:0 233:0 234:0 235:0 236:0 237:0 238:0 239:0 240:0 241:0 242:0 243:0 244:0 245:0 246:0 247:0 248:0 249:0 250:0 251:1 252:0 253:0 254:0 255:0 256:0 257:0 258:0 259:0 260:0 261:0 262:0 263:0 264:0 265:0 266:2 267:0 268:0 269:0 270:0 271:0 272:0 273:0 274:1 275:0 276:0 277:0 278:0 279:0 280:0 281:0 282:0 283:1 284:0 285:0 286:0 287:0 288:0 289:0 290:1 291:0 292:1 293:0 294:0 295:0 296:0 297:0 298:0 299:1 300:0 301:0 302:0 303:0 304:0 305:1 306:0 307:0 308:0 309:0 310:0 311:0 312:0 313:0 314:0 315:0 316:0 317:0 318:0 319:0 320:0 321:0 322:0 323:0 324:0 325:0 326:0 327:0 328:0 329:0 330:0 331:0 332:0 333:0 334:0 335:0 336:0 337:0 338:0 339:0 340:0 341:0 342:0 343:0 344:0 345:0 346:0 347:0 348:0 349:0 350:0 351:0 352:0 353:0 354:0 355:0 356:0 357:0 358:0 359:0 360:0 361:0 362:0 363:1 364:0 365:0 366:0 367:0 368:0 369:0 370:1 371:0 372:0 373:0 374:0 375:0 376:0 377:0 378:0 379:0 380:0 381:0 382:0 383:0 384:0 385:1 386:0 387:0 388:0 389:0 390:0 391:1 392:0 393:0 394:0 395:0 396:0 397:0 398:0 399:0 400:0 401:0 402:0 403:0 404:0 405:0 406:0 407:0 408:0 409:0 410:0 411:1 412:0 413:0 414:0 415:0 416:0 417:0 418:0 419:0 420:0 421:0 422:0 423:0 424:0 425:0 426:0 427:0 428:0 429:0 430:0 431:1 432:0 433:1 434:0 435:0 436:0 437:0 438:0 439:0 440:0 441:1 442:0 443:0 444:0 445:0 446:0 447:0 448:2 449:0 450:0 451:0 452:0 453:0 454:0 455:0 456:0 457:0 458:0 459:0 460:0 461:0 462:0 463:0 464:0 465:0 466:0 467:1 468:0 469:0 470:0 471:0 472:0 473:0 474:0 475:0 476:0 477:0 478:0 479:0 480:0 481:0 482:0 483:0 484:0 485:0 486:0 487:0 488:0 489:0 490:0 491:0 492:0 493:0 494:0 495:0 496:0 497:0 498:0 499:0 500:0 501:0 502:0 503:0 504:0 505:0 506:0 507:0 508:0 509:0 510:1 511:0 512:0 513:0 514:0 515:0 516:0 517:0 518:1 519:1 520:1 521:0 522:0 523:1 524:0 525:0 526:0 527:0 528:0 529:1 530:2 531:0 532:0 533:0 534:0 535:0 536:0 537:0 538:0 539:0 540:0 541:0 542:0 543:0 544:0 545:0 546:0 547:0 548:0 549:0 550:0 551:0 552:0 553:0 554:0 555:0 556:0 557:0 558:0 559:0 560:0 561:0 562:0 563:0 564:0 565:2 566:0 567:0 568:1 569:0 570:0 571:0 572:0 573:0 574:0 575:0 576:0 577:0 578:0 579:0 580:0 581:0 582:0 583:0 584:0 585:0 586:0 587:0 588:0 589:0 590:0 591:0 592:0 593:0 594:0 595:0 596:0 597:0 598:0 599:0 600:0 601:0 602:0 603:0 604:0 605:0 606:1 607:0 608:0 609:0 610:0 611:0 612:0 613:0 614:0 615:0 616:0 617:0 618:0 619:0 620:0 621:1 622:0 623:0 624:0 625:0 626:0 627:0 628:0 629:0 630:0 631:0 632:0 633:0 634:0 635:0 636:0 637:0 638:0 639:0 640:0 641:0 642:0 643:0 644:0 645:0 646:0 647:0 648:0 649:0 650:0 651:0 652:1 653:0 654:0 655:0 656:0 657:0 658:0 659:0 660:0 661:0 662:0 663:0 664:0 665:0 666:0 667:0 668:0 669:0 670:0 671:0 672:1 673:0 674:0 675:0 676:0 677:0 678:0 679:0 680:0 681:0 682:0 683:0 684:0 685:0 686:0 687:0 688:0 689:0 690:0 691:0 692:0 693:0 694:0 695:0 696:0 697:0 698:0 699:0 700:0 701:0 702:0 703:0 704:3 705:0 706:0 707:0 708:1 709:0 710:0 711:0 712:0 713:4 714:0 715:0 716:0 717:0 718:0 719:0 720:0 721:0 722:0 723:0 724:0 725:1 726:0 727:0 728:0 729:0 730:0 731:0 732:0 733:0 734:0 735:0 736:0 737:0 738:0 739:0 740:0 741:0 742:0 743:0 744:0 745:0 746:0 747:0 748:0 749:0 750:0 751:0 752:0 753:0 754:0 755:0 756:0 757:0 758:0 759:0 760:0 761:0 762:1 763:0 764:0 765:0 766:0 767:0 768:0 769:0 770:0 771:0 772:0 773:0 774:0 775:0 776:1 777:0 778:0 779:0 780:0 781:0 782:0 783:0 784:0 785:0 786:0 787:0 788:0 789:0 790:0 791:1 792:0 793:0 794:0 795:0 796:0 797:0 798:0 799:0 800:0 801:1 802:0 803:0 804:0 805:0 806:0 807:1 808:0 809:0 810:0 811:1 812:0 813:0 814:0 815:0 816:0 817:0 818:0 819:0 820:0 821:0 822:0 823:0 824:0 825:0 826:0 827:0 828:0 829:0 830:0 831:0 832:0 833:0 834:0 835:0 836:0 837:0 838:0 839:0 840:0 841:0 842:0 843:0 844:0 845:0 846:0 847:0 848:1 849:0 850:0 851:0 852:0 853:0 854:0 855:0 856:0 857:0 858:0 859:0 860:0 861:0 862:0 863:0 864:0 865:0 866:0 867:0 868:0 869:0 870:1 871:0 872:0 873:0 874:0 875:0 876:0 877:0 878:0 879:0 880:0 881:0 882:0 883:0 884:0 885:0 886:0 887:0 888:0 889:0 890:0 891:0 892:0 893:0 894:0 895:0 896:0 897:0 898:0 899:0 900:0 901:0 902:0 903:0 904:0 905:0 906:1 907:0 908:0 909:0 910:0 911:0 912:1 913:0 914:0 915:0 916:0 917:0 918:0 919:0 920:0 921:0 922:0 923:0 924:0 925:0 926:0 927:0 928:0 929:1 930:0 931:0 932:0 933:0 934:0 935:0 936:0 937:0 938:0 939:0 940:0 941:0 942:0 943:0 944:0 945:0 946:0 947:0 948:0 949:0 950:1 951:0 952:0 953:0 954:0 955:0 956:0 957:0 958:0 959:0 960:0 961:0 962:0 963:0 964:0 965:0 966:0 967:0 968:0 969:0 970:0 971:0 972:0 973:0 974:0 975:0 976:0 977:0 978:0 979:0 980:0 981:0 982:0 983:0 984:0 985:0 986:0 987:0 988:0 989:0 990:0 991:0 992:0 993:0 994:0 995:0 996:0 997:0 998:0 999:0 1000:0 
0.011420758995624298 1:0 2:0 3:0 4:0 5:0 6:0 7:0 8:0 9:0 10:0 11:0 12:0 13:0 14:0 15:0 16:0 17:0 18:0 19:0 20:0 21:0 22:0 23:0 24:0 25:0 26:0 27:0 28:0 29:0 30:0 31:0 32:0 33:0 34:0 35:0 36:0 37:0 38:0 39:0 40:0 41:0 42:0 43:0 44:0 45:0 46:0 47:0 48:0 49:0 50:0 51:0 52:0 53:0 54:0 55:0 56:0 57:0 58:0 59:0 60:0 61:0 62:0 63:0 64:0 65:0 66:0 67:0 68:0 69:0 70:0 71:0 72:0 73:0 74:0 75:0 76:0 77:0 78:0 79:0 80:0 81:0 82:0 83:0 84:0 85:0 86:0 87:0 88:0 89:0 90:0 91:0 92:0 93:0 94:0 95:1 96:0 97:0 98:0 99:0 100:0 101:0 102:1 103:0 104:0 105:0 106:0 107:0 108:0 109:0 110:0 111:0 112:0 113:0 114:0 115:1 116:0 117:0 118:0 119:0 120:0 121:0 122:0 123:0 124:0 125:0 126:0 127:0 128:0 129:0 130:0 131:0 132:0 133:0 134:0 135:0 136:0 137:0 138:0 139:0 140:0 141:0 142:0 143:0 144:0 145:0 146:0 147:0 148:0 149:0 150:0 151:0 152:0 153:0 154:0 155:0 156:0 157:0 158:0 159:0 160:0 161:0 162:0 163:0 164:0 165:0 166:1 167:0 168:0 169:0 170:0 171:0 172:0 173:0 174:0 175:0 176:0 177:0 178:0 179:1 180:0 181:0 182:0 183:0 184:0 185:0 186:0 187:0 188:0 189:0 190:0 191:0 192:0 193:0 194:0 195:0 196:0 197:0 198:0 199:0 200:0 201:0 202:0 203:0 204:0 205:0 206:0 207:0 208:0 209:0 210:0 211:0 212:0 213:0 214:0 215:1 216:0 217:0 218:0 219:0 220:0 221:0 222:0 223:0 224:0 225:0 226:0 227:0 228:0 229:0 230:0 231:0 232:0 233:0 234:0 235:0 236:0 237:0 238:0 239:0 240:0 241:0 242:0 243:0 244:0 245:0 246:0 247:0 248:0 249:0 250:0 251:0 252:0 253:0 254:0 255:0 256:0 257:0 258:0 259:0 260:0 261:0 262:0 263:0 264:0 265:0 266:0 267:0 268:0 269:0 270:0 271:0 272:0 273:0 274:0 275:0 276:0 277:0 278:0 279:0 280:0 281:0 282:0 283:0 284:0 285:0 286:0 287:0 288:0 289:0 290:0 291:0 292:0 293:0 294:0 295:0 296:0 297:0 298:0 299:0 300:0 301:0 302:0 303:0 304:0 305:0 306:0 307:0 308:0 309:0 310:0 311:0 312:0 313:0 314:0 315:0 316:0 317:0 318:0 319:0 320:0 321:0 322:0 323:0 324:0 325:0 326:0 327:0 328:0 329:0 330:0 331:0 332:0 333:0 334:0 335:0 336:0 337:0 338:0 339:0 340:0 341:0 342:0 343:0 344:0 345:0 346:0 347:0 348:1 349:0 350:0 351:0 352:0 353:0 354:0 355:0 356:0 357:0 358:0 359:0 360:0 361:0 362:0 363:0 364:0 365:0 366:0 367:0 368:0 369:0 370:0 371:0 372:0 373:0 374:0 375:0 376:0 377:0 378:0 379:0 380:0 381:0 382:0 383:0 384:0 385:0 386:0 387:0 388:0 389:0 390:0 391:0 392:0 393:0 394:0 395:0 396:0 397:0 398:0 399:0 400:0 401:0 402:0 403:0 404:0 405:0 406:0 407:0 408:0 409:0 410:0 411:1 412:0 413:0 414:0 415:0 416:0 417:0 418:0 419:0 420:0 421:0 422:0 423:0 424:0 425:0 426:0 427:0 428:0 429:0 430:0 431:0 432:0 433:0 434:0 435:0 436:0 437:0 438:0 439:0 440:0 441:0 442:0 443:0 444:0 445:0 446:0 447:0 448:0 449:0 450:0 451:0 452:0 453:0 454:0 455:0 456:0 457:0 458:0 459:0 460:0 461:0 462:0 463:0 464:0 465:0 466:0 467:0 468:0 469:0 470:0 471:0 472:0 473:0 474:0 475:0 476:0 477:0 478:0 479:0 480:0 481:0 482:0 483:0 484:0 485:0 486:0 487:0 488:0 489:0 490:0 491:0 492:0 493:0 494:0 495:0 496:0 497:0 498:1 499:0 500:0 501:0 502:0 503:0 504:0 505:0 506:0 507:0 508:0 509:0 510:0 511:0 512:0 513:0 514:0 515:0 516:0 517:0 518:0 519:0 520:0 521:0 522:1 523:1 524:0 525:0 526:0 527:0 528:0 529:0 530:0 531:0 532:0 533:0 534:0 535:0 536:0 537:0 538:0 539:0 540:0 541:0 542:0 543:0 544:0 545:0 546:0 547:0 548:0 549:0 550:0 551:0 552:0 553:0 554:0 555:0 556:0 557:0 558:0 559:0 560:0 561:0 562:0 563:0 564:0 565:0 566:0 567:0 568:0 569:0 570:0 571:0 572:0 573:0 574:0 575:0 576:0 577:0 578:0 579:0 580:0 581:0 582:0 583:0 584:0 585:0 586:0 587:0 588:0 589:0 590:0 591:0 592:0 593:0 594:0 595:0 596:0 597:0 598:0 599:0 600:0 601:0 602:0 603:0 604:0 605:0 606:0 607:0 608:0 609:0 610:0 611:0 612:0 613:0 614:0 615:0 616:0 617:0 618:0 619:0 620:0 621:0 622:0 623:0 624:0 625:0 626:0 627:0 628:0 629:0 630:0 631:0 632:0 633:0 634:1 635:0 636:0 637:0 638:1 639:0 640:0 641:0 642:0 643:0 644:0 645:0 646:0 647:0 648:0 649:0 650:0 651:0 652:0 653:0 654:0 655:0 656:1 657:0 658:0 659:0 660:0 661:0 662:0 663:0 664:0 665:0 666:0 667:0 668:0 669:0 670:0 671:0 672:0 673:0 674:0 675:0 676:0 677:0 678:0 679:0 680:0 681:0 682:0 683:0 684:0 685:0 686:0 687:0 688:0 689:0 690:0 691:0 692:0 693:0 694:0 695:0 696:0 697:0 698:0 699:0 700:0 701:0 702:0 703:0 704:0 705:0 706:0 707:0 708:0 709:0 710:0 711:0 712:0 713:0 714:0 715:0 716:0 717:0 718:0 719:0 720:0 721:0 722:0 723:0 724:0 725:0 726:0 727:0 728:0 729:0 730:0 731:0 732:0 733:0 734:0 735:0 736:0 737:0 738:0 739:0 740:0 741:0 742:0 743:0 744:0 745:0 746:0 747:0 748:0 749:0 750:0 751:0 752:0 753:0 754:0 755:0 756:0 757:0 758:0 759:0 760:0 761:0 762:0 763:0 764:0 765:0 766:0 767:1 768:0 769:0 770:0 771:0 772:0 773:0 774:0 775:0 776:0 777:0 778:0 779:0 780:0 781:0 782:0 783:0 784:0 785:0 786:0 787:0 788:0 789:0 790:0 791:0 792:0 793:0 794:0 795:0 796:0 797:0 798:0 799:0 800:0 801:0 802:0 803:0 804:0 805:0 806:0 807:0 808:0 809:0 810:0 811:0 812:0 813:0 814:0 815:0 816:0 817:0 818:0 819:0 820:0 821:0 822:0 823:0 824:0 825:0 826:0 827:0 828:0 829:0 830:0 831:0 832:0 833:0 834:0 835:1 836:0 837:0 838:0 839:0 840:0 841:0 842:0 843:0 844:0 845:0 846:0 847:0 848:0 849:0 850:0 851:0 852:0 853:0 854:0 855:0 856:0 857:0 858:0 859:0 860:0 861:0 862:0 863:0 864:0 865:0 866:0 867:0 868:0 869:0 870:0 871:0 872:0 873:0 874:0 875:0 876:0 877:0 878:0 879:0 880:0 881:0 882:0 883:0 884:0 885:0 886:0 887:0 888:0 889:0 890:0 891:0 892:0 893:0 894:0 895:0 896:0 897:0 898:0 899:0 900:0 901:0 902:0 903:0 904:0 905:1 906:0 907:0 908:0 909:0 910:0 911:0 912:0 913:0 914:0 915:0 916:0 917:0 918:0 919:0 920:0 921:0 922:0 923:0 924:0 925:0 926:0 927:0 928:0 929:0 930:0 931:0 932:0 933:0 934:0 935:0 936:0 937:0 938:0 939:0 940:0 941:0 942:0 943:1 944:0 945:0 946:0 947:0 948:0 949:0 950:0 951:0 952:0 953:0 954:0 955:0 956:0 957:0 958:0 959:0 960:0 961:0 962:0 963:0 964:2 965:0 966:0 967:0 968:0 969:0 970:0 971:0 972:0 973:0 974:0 975:0 976:0 977:0 978:0 979:0 980:0 981:0 982:0 983:0 984:0 985:0 986:0 987:0 988:0 989:0 990:0 991:0 992:0 993:0 994:0 995:0 996:0 997:0 998:0 999:0 1000:0 
0.012466707554955103 1:0 2:0 3:0 4:0 5:0 6:0 7:0 8:0 9:0 10:0 11:0 12:0 13:0 14:0 15:0 16:0 17:0 18:0 19:0 20:0 21:0 22:0 23:0 24:0 25:0 26:0 27:0 28:0 29:0 30:0 31:0 32:0 33:0 34:0 35:0 36:0 37:0 38:0 39:0 40:0 41:0 42:0 43:0 44:0 45:0 46:0 47:0 48:0 49:0 50:0 51:0 52:1 53:0 54:0 55:0 56:0 57:0 58:0 59:0 60:0 61:0 62:0 63:0 64:0 65:0 66:0 67:0 68:0 69:0 70:0 71:0 72:0 73:0 74:0 75:0 76:0 77:0 78:0 79:0 80:0 81:0 82:0 83:0 84:0 85:0 86:0 87:0 88:0 89:0 90:0 91:1 92:0 93:0 94:0 95:0 96:0 97:0 98:0 99:0 100:0 101:0 102:0 103:0 104:0 105:0 106:0 107:0 108:0 109:0 110:0 111:0 112:0 113:0 114:0 115:0 116:0 117:0 118:0 119:0 120:0 121:0 122:0 123:0 124:0 125:1 126:0 127:0 128:0 129:0 130:0 131:0 132:0 133:0 134:0 135:0 136:0 137:0 138:0 139:0 140:0 141:0 142:0 143:0 144:0 145:0 146:0 147:0 148:0 149:0 150:0 151:0 152:0 153:0 154:0 155:0 156:0 157:0 158:0 159:0 160:0 161:0 162:0 163:0 164:0 165:0 166:1 167:0 168:0 169:0 170:0 171:0 172:0 173:0 174:0 175:0 176:0 177:0 178:0 179:0 180:0 181:5 182:0 183:0 184:0 185:0 186:0 187:0 188:0 189:0 190:0 191:0 192:0 193:0 194:0 195:0 196:0 197:0 198:0 199:0 200:0 201:0 202:0 203:0 204:0 205:0 206:0 207:0 208:0 209:0 210:0 211:0 212:0 213:0 214:0 215:0 216:0 217:0 218:0 219:0 220:0 221:0 222:0 223:0 224:0 225:0 226:0 227:0 228:0 229:0 230:0 231:0 232:0 233:0 234:0 235:0 236:0 237:0 238:0 239:0 240:0 241:0 242:0 243:0 244:0 245:0 246:0 247:0 248:0 249:0 250:0 251:0 252:0 253:0 254:0 255:0 256:0 257:0 258:0 259:0 260:0 261:0 262:0 263:0 264:0 265:0 266:0 267:0 268:0 269:0 270:0 271:0 272:0 273:0 274:0 275:0 276:0 277:0 278:0 279:0 280:0 281:0 282:0 283:0 284:0 285:0 286:0 287:0 288:1 289:0 290:0 291:0 292:0 293:0 294:0 295:0 296:0 297:0 298:0 299:0 300:0 301:0 302:0 303:0 304:0 305:0 306:0 307:0 308:0 309:0 310:0 311:0 312:0 313:0 314:0 315:0 316:0 317:0 318:0 319:0 320:0 321:0 322:0 323:0 324:0 325:0 326:0 327:0 328:0 329:0 330:0 331:0 332:0 333:0 334:0 335:0 336:0 337:0 338:0 339:0 340:0 341:0 342:0 343:0 344:0 345:0 346:0 347:0 348:0 349:0 350:0 351:0 352:0 353:0 354:0 355:0 356:0 357:0 358:0 359:2 360:0 361:0 362:0 363:0 364:0 365:0 366:0 367:0 368:0 369:0 370:0 371:0 372:0 373:0 374:0 375:0 376:0 377:0 378:0 379:0 380:0 381:0 382:0 383:0 384:0 385:0 386:0 387:0 388:0 389:0 390:0 391:0 392:0 393:0 394:0 395:0 396:0 397:0 398:0 399:0 400:0 401:0 402:0 403:0 404:0 405:0 406:0 407:0 408:0 409:0 410:0 411:1 412:0 413:0 414:0 415:0 416:0 417:0 418:0 419:0 420:0 421:0 422:1 423:0 424:0 425:0 426:0 427:0 428:0 429:0 430:0 431:0 432:0 433:0 434:0 435:0 436:0 437:0 438:0 439:0 440:0 441:1 442:0 443:0 444:0 445:0 446:0 447:0 448:0 449:0 450:0 451:0 452:0 453:0 454:0 455:0 456:0 457:0 458:0 459:0 460:0 461:0 462:0 463:0 464:0 465:0 466:0 467:0 468:0 469:0 470:0 471:0 472:0 473:0 474:0 475:0 476:0 477:0 478:0 479:0 480:0 481:0 482:0 483:0 484:0 485:0 486:0 487:0 488:0 489:0 490:0 491:0 492:0 493:0 494:1 495:0 496:0 497:0 498:0 499:0 500:0 501:0 502:0 503:0 504:0 505:0 506:0 507:0 508:0 509:0 510:0 511:0 512:0 513:0 514:0 515:0 516:0 517:0 518:0 519:0 520:0 521:0 522:0 523:0 524:0 525:0 526:0 527:0 528:0 529:0 530:0 531:0 532:0 533:0 534:0 535:0 536:0 537:0 538:0 539:0 540:0 541:0 542:0 543:0 544:0 545:0 546:0 547:0 548:0 549:0 550:0 551:0 552:0 553:0 554:0 555:0 556:0 557:0 558:0 559:0 560:2 561:0 562:0 563:0 564:0 565:0 566:0 567:0 568:1 569:0 570:0 571:0 572:0 573:0 574:0 575:0 576:0 577:0 578:0 579:0 580:0 581:1 582:0 583:0 584:0 585:0 586:0 587:0 588:0 589:0 590:0 591:0 592:0 593:0 594:0 595:0 596:0 597:0 598:0 599:0 600:0 601:0 602:0 603:0 604:0 605:0 606:0 607:0 608:0 609:0 610:0 611:0 612:0 613:0 614:0 615:0 616:0 617:0 618:0 619:0 620:0 621:0 622:0 623:0 624:0 625:0 626:0 627:0 628:0 629:0 630:0 631:0 632:0 633:0 634:0 635:0 636:0 637:0 638:1 639:0 640:0 641:0 642:0 643:0 644:0 645:0 646:0 647:0 648:0 649:0 650:0 651:0 652:0 653:0 654:0 655:0 656:0 657:0 658:0 659:0 660:0 661:0 662:0 663:0 664:0 665:0 666:0 667:0 668:0 669:0 670:0 671:0 672:0 673:0 674:0 675:0 676:0 677:0 678:0 679:0 680:0 681:0 682:0 683:0 684:0 685:0 686:0 687:0 688:0 689:0 690:0 691:0 692:0 693:0 694:0 695:0 696:0 697:0 698:0 699:0 700:0 701:0 702:0 703:1 704:0 705:0 706:0 707:0 708:0 709:0 710:0 711:0 712:0 713:0 714:0 715:0 716:0 717:0 718:0 719:0 720:0 721:0 722:0 723:0 724:0 725:0 726:0 727:0 728:0 729:0 730:0 731:0 732:0 733:0 734:0 735:0 736:0 737:0 738:0 739:0 740:0 741:0 742:0 743:0 744:0 745:0 746:0 747:0 748:0 749:0 750:0 751:0 752:0 753:0 754:0 755:0 756:0 757:0 758:0 759:0 760:0 761:0 762:0 763:0 764:0 765:0 766:0 767:0 768:0 769:0 770:0 771:0 772:0 773:0 774:0 775:0 776:0 777:0 778:0 779:0 780:0 781:0 782:0 783:0 784:0 785:0 786:0 787:0 788:0 789:0 790:0 791:0 792:0 793:0 794:0 795:0 796:0 797:0 798:0 799:0 800:0 801:0 802:0 803:0 804:0 805:0 806:0 807:0 808:0 809:0 810:0 811:0 812:0 813:0 814:0 815:0 816:0 817:0 818:0 819:0 820:0 821:0 822:0 823:0 824:0 825:0 826:2 827:0 828:0 829:0 830:0 831:0 832:0 833:0 834:0 835:0 836:0 837:0 838:0 839:0 840:0 841:0 842:0 843:0 844:0 845:0 846:0 847:1 848:0 849:0 850:0 851:0 852:0 853:0 854:0 855:0 856:0 857:0 858:0 859:0 860:0 861:0 862:0 863:0 864:0 865:0 866:0 867:0 868:0 869:0 870:0 871:0 872:0 873:0 874:0 875:0 876:0 877:1 878:0 879:0 880:0 881:0 882:0 883:0 884:0 885:0 886:0 887:0 888:0 889:0 890:0 891:0 892:0 893:0 894:0 895:0 896:0 897:0 898:0 899:0 900:0 901:0 902:0 903:0 904:0 905:0 906:0 907:0 908:0 909:0 910:0 911:0 912:0 913:0 914:0 915:0 916:0 917:0 918:0 919:0 920:0 921:0 922:0 923:0 924:0 925:0 926:0 927:0 928:0 929:0 930:0 931:0 932:0 933:0 934:0 935:0 936:0 937:0 938:0 939:0 940:0 941:0 942:0 943:0 944:0 945:0 946:0 947:0 948:0 949:0 950:0 951:0 952:0 953:0 954:0 955:0 956:0 957:0 958:0 959:0 960:0 961:0 962:0 963:0 964:0 965:0 966:0 967:0 968:0 969:1 970:0 971:0 972:0 973:0 974:0 975:0 976:0 977:0 978:0 979:0 980:0 981:0 982:1 983:0 984:0 985:0 986:2 987:0 988:0 989:0 990:0 991:0 992:0 993:0 994:0 995:0 996:0 997:0 998:0 999:0 1000:0 
0.00035148833172394059 1:0 2:0 3:0 4:0 5:0 6:0 7:0 8:0 9:0 10:0 11:0 12:0 13:0 14:0 15:0 16:0 17:0 18:0 19:0 20:0 21:0 22:0 23:0 24:3 25:0 26:0 27:0 28:0 29:0 30:0 31:1 32:0 33:0 34:0 35:0 36:0 37:2 38:0 39:0 40:0 41:0 42:0 43:0 44:0 45:0 46:0 47:0 48:0 49:0 50:0 51:0 52:0 53:0 54:0 55:0 56:0 57:1 58:0 59:1 60:0 61:0 62:0 63:0 64:0 65:0 66:0 67:0 68:0 69:0 70:0 71:0 72:0 73:0 74:0 75:0 76:0 77:0 78:0 79:0 80:0 81:2 82:0 83:0 84:0 85:0 86:0 87:0 88:0 89:1 90:0 91:0 92:0 93:0 94:0 95:0 96:0 97:0 98:0 99:2 100:0 101:0 102:0 103:0 104:0 105:0 106:0 107:0 108:0 109:0 110:0 111:1 112:0 113:1 114:0 115:1 116:0 117:0 118:0 119:0 120:0 121:0 122:0 123:1 124:0 125:0 126:0 127:0 128:0 129:0 130:0 131:0 132:0 133:0 134:0 135:0 136:0 137:0 138:0 139:0 140:0 141:0 142:0 143:1 144:0 145:0 146:0 147:0 148:1 149:0 150:0 151:0 152:0 153:0 154:0 155:0 156:0 157:0 158:4 159:0 160:0 161:0 162:0 163:0 164:0 165:0 166:0 167:0 168:0 169:0 170:0 171:0 172:0 173:0 174:0 175:0 176:0 177:1 178:0 179:0 180:0 181:0 182:0 183:0 184:0 185:0 186:0 187:0 188:0 189:0 190:0 191:0 192:0 193:0 194:1 195:0 196:0 197:0 198:0 199:0 200:0 201:0 202:0 203:0 204:1 205:0 206:0 207:0 208:0 209:1 210:0 211:0 212:1 213:0 214:0 215:0 216:0 217:0 218:0 219:0 220:0 221:0 222:0 223:8 224:0 225:0 226:0 227:0 228:0 229:0 230:0 231:0 232:0 233:0 234:0 235:0 236:0 237:0 238:0 239:0 240:0 241:0 242:0 243:0 244:0 245:0 246:0 247:0 248:0 249:0 250:0 251:1 252:0 253:0 254:0 255:0 256:0 257:0 258:0 259:0 260:0 261:0 262:0 263:0 264:0 265:0 266:0 267:0 268:0 269:0 270:0 271:0 272:0 273:0 274:0 275:0 276:0 277:0 278:0 279:0 280:0 281:0 282:0 283:0 284:0 285:0 286:0 287:0 288:0 289:0 290:0 291:0 292:0 293:0 294:0 295:0 296:0 297:0 298:0 299:0 300:0 301:0 302:2 303:0 304:0 305:0 306:2 307:0 308:0 309:0 310:0 311:0 312:0 313:0 314:0 315:0 316:0 317:0 318:0 319:1 320:0 321:0 322:0 323:0 324:0 325:0 326:0 327:0 328:5 329:0 330:0 331:0 332:0 333:0 334:0 335:0 336:0 337:0 338:0 339:0 340:0 341:0 342:0 343:0 344:0 345:0 346:0 347:0 348:1 349:0 350:0 351:1 352:3 353:0 354:0 355:0 356:0 357:0 358:0 359:0 360:0 361:0 362:0 363:0 364:0 365:0 366:0 367:1 368:0 369:0 370:0 371:0 372:0 373:0 374:0 375:0 376:0 377:0 378:0 379:0 380:0 381:0 382:0 383:0 384:0 385:0 386:0 387:0 388:0 389:0 390:0 391:0 392:0 393:0 394:0 395:0 396:0 397:0 398:0 399:0 400:0 401:0 402:1 403:0 404:0 405:0 406:0 407:0 408:0 409:0 410:0 411:0 412:0 413:0 414:0 415:0 416:0 417:0 418:0 419:0 420:0 421:0 422:0 423:0 424:0 425:0 426:0 427:0 428:0 429:0 430:0 431:0 432:0 433:0 434:0 435:0 436:0 437:0 438:0 439:0 440:0 441:3 442:0 443:0 444:0 445:0 446:0 447:0 448:0 449:0 450:0 451:0 452:0 453:0 454:0 455:0 456:0 457:0 458:2 459:0 460:0 461:0 462:0 463:0 464:0 465:0 466:0 467:0 468:0 469:2 470:0 471:1 472:0 473:0 474:0 475:0 476:0 477:0 478:0 479:0 480:0 481:0 482:0 483:0 484:0 485:0 486:0 487:0 488:0 489:0 490:0 491:0 492:0 493:1 494:0 495:0 496:0 497:0 498:0 499:0 500:1 501:0 502:0 503:0 504:0 505:0 506:0 507:0 508:0 509:0 510:1 511:2 512:0 513:0 514:0 515:0 516:0 517:0 518:0 519:0 520:0 521:0 522:0 523:0 524:0 525:0 526:0 527:0 528:0 529:0 530:0 531:0 532:0 533:0 534:0 535:0 536:0 537:0 538:0 539:0 540:0 541:0 542:0 543:0 544:0 545:2 546:0 547:0 548:0 549:0 550:0 551:0 552:0 553:0 554:1 555:0 556:0 557:0 558:0 559:0 560:0 561:0 562:0 563:0 564:1 565:0 566:0 567:0 568:1 569:0 570:0 571:0 572:0 573:0 574:1 575:0 576:0 577:0 578:0 579:1 580:0 581:0 582:0 583:0 584:0 585:0 586:0 587:0 588:0 589:0 590:0 591:0 592:0 593:0 594:0 595:10 596:0 597:0 598:0 599:0 600:0 601:0 602:0 603:0 604:0 605:0 606:0 607:0 608:0 609:0 610:0 611:0 612:0 613:0 614:0 615:0 616:0 617:0 618:0 619:0 620:0 621:0 622:0 623:0 624:0 625:0 626:0 627:0 628:0 629:0 630:0 631:0 632:0 633:0 634:14 635:0 636:0 637:0 638:0 639:0 640:0 641:0 642:0 643:0 644:0 645:3 646:0 647:0 648:0 649:0 650:0 651:0 652:0 653:0 654:0 655:0 656:1 657:0 658:0 659:0 660:0 661:0 662:0 663:0 664:0 665:0 666:0 667:0 668:0 669:0 670:0 671:0 672:0 673:0 674:0 675:0 676:0 677:0 678:0 679:0 680:0 681:0 682:0 683:0 684:0 685:0 686:0 687:0 688:0 689:1 690:0 691:0 692:0 693:0 694:0 695:0 696:0 697:0 698:0 699:0 700:0 701:0 702:0 703:0 704:0 705:0 706:0 707:0 708:0 709:0 710:0 711:0 712:0 713:0 714:0 715:0 716:0 717:0 718:0 719:0 720:0 721:0 722:1 723:0 724:0 725:0 726:0 727:0 728:0 729:0 730:0 731:0 732:1 733:0 734:0 735:0 736:0 737:0 738:0 739:0 740:0 741:0 742:0 743:0 744:0 745:0 746:0 747:0 748:0 749:0 750:0 751:0 752:0 753:0 754:0 755:0 756:0 757:0 758:0 759:0 760:0 761:0 762:0 763:0 764:0 765:0 766:0 767:0 768:0 769:0 770:0 771:0 772:0 773:0 774:0 775:0 776:0 777:0 778:0 779:0 780:0 781:0 782:0 783:0 784:0 785:0 786:0 787:0 788:0 789:0 790:0 791:0 792:0 793:0 794:0 795:0 796:0 797:0 798:0 799:0 800:0 801:0 802:0 803:0 804:0 805:0 806:0 807:0 808:0 809:0 810:0 811:0 812:1 813:0 814:1 815:0 816:0 817:0 818:0 819:0 820:0 821:0 822:0 823:0 824:0 825:0 826:0 827:0 828:0 829:0 830:0 831:0 832:1 833:0 834:0 835:0 836:0 837:0 838:0 839:0 840:0 841:0 842:0 843:0 844:0 845:0 846:0 847:0 848:1 849:0 850:0 851:0 852:0 853:0 854:0 855:0 856:0 857:0 858:1 859:0 860:0 861:0 862:0 863:0 864:0 865:0 866:0 867:0 868:0 869:1 870:0 871:0 872:0 873:0 874:0 875:0 876:0 877:0 878:0 879:0 880:0 881:1 882:0 883:0 884:0 885:0 886:0 887:0 888:0 889:0 890:0 891:0 892:0 893:0 894:0 895:0 896:0 897:0 898:0 899:0 900:0 901:0 902:0 903:0 904:0 905:0 906:0 907:0 908:0 909:0 910:1 911:0 912:1 913:0 914:0 915:0 916:0 917:0 918:0 919:0 920:0 921:0 922:0 923:0 924:0 925:1 926:0 927:0 928:0 929:0 930:0 931:0 932:0 933:0 934:0 935:0 936:0 937:0 938:0 939:0 940:0 941:0 942:0 943:2 944:0 945:0 946:0 947:0 948:0 949:0 950:0 951:0 952:0 953:0 954:0 955:0 956:0 957:0 958:0 959:0 960:0 961:0 962:0 963:0 964:0 965:0 966:0 967:0 968:0 969:0 970:0 971:0 972:0 973:0 974:0 975:0 976:0 977:0 978:0 979:0 980:0 981:0 982:2 983:0 984:0 985:0 986:0 987:0 988:0 989:1 990:0 991:0 992:0 993:0 994:0 995:0 996:0 997:0 998:0 999:0 1000:1 
0.095498515035304946 1:0 2:0 3:0 4:0 5:0 6:0 7:0 8:0 9:0 10:0 11:0 12:0 13:0 14:0 15:0 16:0 17:0 18:0 19:0 20:0 21:0 22:0 23:0 24:0 25:0 26:0 27:0 28:0 29:0 30:0 31:0 32:0 33:0 34:0 35:0 36:0 37:0 38:0 39:0 40:0 41:0 42:0 43:0 44:0 45:0 46:0 47:0 48:0 49:0 50:0 51:0 52:0 53:0 54:0 55:0 56:0 57:0 58:0 59:0 60:0 61:0 62:0 63:0 64:0 65:0 66:0 67:0 68:0 69:0 70:0 71:0 72:0 73:0 74:0 75:0 76:0 77:0 78:0 79:0 80:0 81:0 82:0 83:0 84:0 85:0 86:0 87:0 88:0 89:0 90:0 91:0 92:0 93:0 94:0 95:0 96:0 97:0 98:0 99:0 100:0 101:0 102:0 103:0 104:0 105:0 106:0 107:0 108:0 109:0 110:0 111:0 112:0 113:0 114:0 115:0 116:0 117:0 118:0 119:0 120:0 121:0 122:0 123:0 124:0 125:0 126:0 127:0 128:0 129:0 130:0 131:0 132:0 133:0 134:0 135:0 136:0 137:0 138:0 139:0 140:0 141:0 142:0 143:0 144:0 145:0 146:0 147:0 148:0 149:0 150:0 151:0 152:0 153:0 154:0 155:0 156:0 157:0 158:0 159:0 160:0 161:0 162:0 163:0 164:0 165:0 166:1 167:0 168:0 169:0 170:0 171:0 172:0 173:0 174:0 175:0 176:0 177:0 178:0 179:0 180:0 181:0 182:0 183:0 184:0 185:0 186:0 187:0 188:0 189:0 190:0 191:0 192:0 193:0 194:0 195:0 196:0 197:0 198:0 199:0 200:0 201:0 202:0 203:0 204:0 205:0 206:0 207:0 208:0 209:0 210:0 211:0 212:0 213:0 214:0 215:0 216:0 217:0 218:0 219:0 220:0 221:0 222:0 223:0 224:0 225:0 226:0 227:0 228:0 229:0 230:0 231:0 232:0 233:0 234:0 235:0 236:0 237:0 238:0 239:0 240:0 241:0 242:0 243:0 244:0 245:0 246:0 247:0 248:0 249:0 250:0 251:0 252:0 253:0 254:0 255:0 256:0 257:0 258:0 259:0 260:0 261:0 262:0 263:0 264:0 265:0 266:0 267:0 268:0 269:0 270:0 271:0 272:0 273:0 274:0 275:0 276:0 277:0 278:0 279:0 280:0 281:0 282:0 283:0 284:0 285:0 286:0 287:0 288:0 289:0 290:0 291:0 292:0 293:0 294:0 295:0 296:0 297:0 298:0 299:0 300:0 301:0 302:0 303:0 304:0 305:0 306:0 307:0 308:0 309:0 310:0 311:0 312:0 313:0 314:0 315:0 316:0 317:0 318:0 319:0 320:0 321:0 322:0 323:0 324:0 325:0 326:0 327:0 328:0 329:1 330:0 331:0 332:0 333:0 334:0 335:0 336:0 337:0 338:0 339:0 340:0 341:0 342:0 343:0 344:0 345:0 346:0 347:0 348:0 349:0 350:0 351:0 352:0 353:0 354:0 355:0 356:0 357:0 358:0 359:0 360:0 361:0 362:0 363:0 364:0 365:0 366:0 367:0 368:0 369:0 370:0 371:0 372:0 373:0 374:0 375:0 376:0 377:0 378:0 379:0 380:0 381:0 382:0 383:0 384:0 385:0 386:0 387:0 388:0 389:0 390:0 391:0 392:0 393:0 394:0 395:0 396:0 397:0 398:0 399:0 400:0 401:0 402:0 403:0 404:0 405:0 406:0 407:0 408:0 409:0 410:0 411:0 412:0 413:0 414:0 415:0 416:0 417:0 418:0 419:0 420:0 421:1 422:0 423:0 424:0 425:0 426:0 427:0 428:0 429:0 430:0 431:0 432:0 433:0 434:0 435:0 436:0 437:0 438:0 439:0 440:0 441:0 442:0 443:0 444:0 445:0 446:0 447:0 448:0 449:0 450:0 451:0 452:0 453:0 454:0 455:0 456:0 457:0 458:1 459:0 460:0 461:0 462:0 463:0 464:0 465:0 466:0 467:0 468:0 469:0 470:0 471:0 472:0 473:0 474:0 475:0 476:0 477:0 478:0 479:0 480:0 481:0 482:0 483:0 484:0 485:0 486:0 487:0 488:0 489:0 490:0 491:0 492:0 493:0 494:0 495:0 496:0 497:0 498:0 499:0 500:0 501:0 502:0 503:0 504:1 505:0 506:0 507:0 508:0 509:0 510:0 511:0 512:0 513:0 514:0 515:0 516:0 517:0 518:0 519:0 520:0 521:0 522:0 523:0 524:0 525:0 526:0 527:0 528:0 529:0 530:0 531:0 532:0 533:0 534:0 535:0 536:0 537:0 538:0 539:0 540:0 541:0 542:0 543:0 544:0 545:0 546:0 547:0 548:0 549:0 550:0 551:0 552:0 553:0 554:0 555:0 556:0 557:0 558:0 559:0 560:0 561:0 562:0 563:0 564:0 565:0 566:0 567:0 568:0 569:0 570:0 571:0 572:0 573:0 574:0 575:0 576:0 577:0 578:0 579:0 580:0 581:0 582:0 583:0 584:0 585:0 586:0 587:0 588:0 589:0 590:1 591:0 592:0 593:0 594:0 595:0 596:0 597:0 598:0 599:0 600:0 601:0 602:0 603:0 604:0 605:0 606:0 607:0 608:0 609:0 610:0 611:0 612:0 613:0 614:0 615:0 616:0 617:0 618:0 619:0 620:0 621:0 622:0 623:0 624:0 625:0 626:0 627:0 628:0 629:0 630:0 631:0 632:0 633:0 634:0 635:0 636:0 637:0 638:0 639:0 640:0 641:0 642:0 643:0 644:0 645:1 646:0 647:0 648:0 649:0 650:0 651:0 652:0 653:0 654:0 655:0 656:0 657:0 658:0 659:0 660:0 661:0 662:0 663:0 664:0 665:0 666:0 667:0 668:0 669:0 670:0 671:0 672:0 673:0 674:0 675:0 676:0 677:0 678:0 679:0 680:0 681:0 682:0 683:0 684:0 685:1 686:0 687:0 688:0 689:0 690:0 691:0 692:0 693:0 694:0 695:0 696:0 697:0 698:0 699:0 700:0 701:1 702:0 703:0 704:0 705:0 706:0 707:0 708:0 709:0 710:0 711:0 712:0 713:0 714:0 715:0 716:0 717:0 718:0 719:0 720:0 721:0 722:0 723:0 724:0 725:0 726:0 727:0 728:0 729:0 730:0 731:0 732:0 733:0 734:0 735:0 736:0 737:0 738:0 739:0 740:0 741:0 742:0 743:0 744:0 745:0 746:0 747:0 748:0 749:0 750:0 751:0 752:0 753:0 754:0 755:0 756:0 757:0 758:0 759:1 760:0 761:0 762:0 763:0 764:0 765:0 766:0 767:0 768:0 769:0 770:0 771:0 772:0 773:0 774:0 775:0 776:0 777:0 778:0 779:0 780:0 781:0 782:0 783:0 784:0 785:0 786:0 787:0 788:0 789:0 790:0 791:0 792:0 793:0 794:0 795:0 796:0 797:0 798:0 799:0 800:0 801:0 802:0 803:0 804:0 805:0 806:0 807:1 808:0 809:0 810:0 811:0 812:0 813:0 814:0 815:0 816:0 817:0 818:0 819:0 820:0 821:0 822:0 823:0 824:0 825:0 826:0 827:0 828:0 829:0 830:0 831:0 832:0 833:0 834:0 835:0 836:0 837:0 838:0 839:0 840:0 841:0 842:0 843:0 844:0 845:0 846:0 847:0 848:0 849:0 850:0 851:0 852:0 853:0 854:0 855:0 856:0 857:0 858:0 859:0 860:0 861:0 862:0 863:0 864:0 865:0 866:0 867:0 868:0 869:0 870:0 871:0 872:0 873:0 874:0 875:0 876:0 877:0 878:0 879:0 880:0 881:0 882:0 883:0 884:0 885:0 886:0 887:0 888:0 889:0 890:0 891:0 892:0 893:0 894:0 895:1 896:0 897:0 898:0 899:0 900:0 901:0 902:0 903:0 904:0 905:0 906:0 907:0 908:0 909:0 910:0 911:0 912:0 913:0 914:0 915:0 916:0 917:0 918:0 919:0 920:0 921:0 922:0 923:0 924:0 925:0 926:0 927:0 928:0 929:0 930:0 931:0 932:0 933:0 934:0 935:0 936:0 937:0 938:0 939:0 940:0 941:0 942:0 943:0 944:0 945:0 946:0 947:0 948:0 949:0 950:0 951:0 952:0 953:0 954:0 955:0 956:0 957:0 958:0 959:0 960:0 961:0 962:0 963:0 964:0 965:0 966:0 967:0 968:1 969:0 970:0 971:0 972:0 973:0 974:0 975:0 976:0 977:0 978:0 979:0 980:0 981:0 982:0 983:0 984:0 985:0 986:0 987:0 988:0 989:0 990:0 991:0 992:0 993:1 994:0 995:0 996:0 997:0 998:0 999:0 1000:0 
0.0076085285765575507 1:0 2:0 3:0 4:0 5:0 6:0 7:0 8:0 9:0 10:0 11:0 12:0 13:0 14:0 15:0 16:0 17:0 18:0 19:0 20:0 21:0 22:0 23:0 24:0 25:0 26:0 27:0 28:0 29:0 30:0 31:0 32:0 33:0 34:0 35:0 36:0 37:0 38:1 39:0 40:0 41:0 42:0 43:0 44:0 45:0 46:0 47:0 48:0 49:0 50:0 51:0 52:0 53:0 54:0 55:0 56:0 57:0 58:0 59:0 60:0 61:0 62:0 63:0 64:0 65:0 66:0 67:0 68:0 69:0 70:0 71:0 72:0 73:0 74:0 75:0 76:0 77:0 78:0 79:2 80:0 81:0 82:0 83:0 84:0 85:0 86:0 87:0 88:0 89:0 90:0 91:0 92:0 93:0 94:0 95:0 96:0 97:0 98:0 99:0 100:0 101:0 102:0 103:0 104:0 105:0 106:0 107:0 108:0 109:0 110:0 111:0 112:0 113:0 114:0 115:2 116:0 117:0 118:0 119:0 120:0 121:0 122:1 123:0 124:0 125:0 126:0 127:0 128:0 129:0 130:0 131:0 132:0 133:0 134:0 135:0 136:0 137:0 138:0 139:0 140:0 141:0 142:0 143:0 144:0 145:0 146:0 147:0 148:2 149:0 150:0 151:0 152:0 153:0 154:0 155:0 156:0 157:0 158:0 159:0 160:0 161:0 162:0 163:0 164:0 165:0 166:0 167:0 168:0 169:0 170:0 171:0 172:0 173:0 174:0 175:0 176:0 177:0 178:0 179:0 180:0 181:0 182:0 183:0 184:0 185:0 186:0 187:0 188:0 189:0 190:0 191:0 192:0 193:0 194:0 195:0 196:0 197:0 198:0 199:0 200:0 201:0 202:0 203:0 204:0 205:0 206:0 207:0 208:0 209:0 210:1 211:0 212:0 213:0 214:0 215:0 216:0 217:0 218:0 219:0 220:0 221:0 222:0 223:0 224:0 225:0 226:0 227:0 228:0 229:0 230:0 231:0 232:0 233:0 234:0 235:0 236:0 237:0 238:0 239:0 240:0 241:0 242:0 243:0 244:0 245:0 246:0 247:0 248:0 249:2 250:0 251:0 252:0 253:0 254:0 255:0 256:0 257:0 258:0 259:0 260:0 261:0 262:0 263:0 264:0 265:0 266:0 267:0 268:0 269:0 270:0 271:0 272:0 273:0 274:0 275:0 276:0 277:0 278:0 279:0 280:0 281:0 282:0 283:0 284:0 285:0 286:0 287:0 288:2 289:0 290:0 291:0 292:0 293:0 294:0 295:0 296:0 297:0 298:0 299:0 300:0 301:0 302:0 303:0 304:0 305:0 306:0 307:2 308:0 309:0 310:0 311:0 312:0 313:0 314:0 315:0 316:0 317:0 318:0 319:0 320:0 321:0 322:0 323:0 324:0 325:0 326:0 327:0 328:0 329:0 330:0 331:0 332:0 333:0 334:0 335:0 336:0 337:0 338:0 339:0 340:0 341:0 342:0 343:0 344:0 345:0 346:0 347:0 348:0 349:0 350:0 351:0 352:0 353:0 354:0 355:0 356:0 357:0 358:0 359:0 360:0 361:0 362:0 363:0 364:0 365:0 366:0 367:0 368:0 369:0 370:0 371:0 372:0 373:0 374:0 375:0 376:0 377:0 378:0 379:0 380:0 381:0 382:0 383:0 384:0 385:0 386:0 387:0 388:0 389:0 390:0 391:0 392:0 393:0 394:0 395:0 396:0 397:0 398:0 399:0 400:0 401:0 402:0 403:0 404:0 405:0 406:0 407:0 408:0 409:0 410:0 411:0 412:0 413:0 414:2 415:0 416:0 417:0 418:0 419:0 420:0 421:0 422:0 423:0 424:0 425:0 426:0 427:0 428:0 429:0 430:0 431:1 432:0 433:0 434:0 435:0 436:0 437:0 438:0 439:0 440:0 441:0 442:0 443:0 444:0 445:0 446:0 447:0 448:0 449:0 450:0 451:1 452:0 453:0 454:0 455:0 456:0 457:0 458:0 459:0 460:0 461:0 462:0 463:0 464:0 465:0 466:0 467:0 468:0 469:0 470:0 471:0 472:0 473:0 474:0 475:0 476:0 477:0 478:0 479:0 480:0 481:0 482:0 483:0 484:0 485:0 486:0 487:0 488:0 489:0 490:0 491:0 492:0 493:0 494:0 495:0 496:0 497:0 498:0 499:0 500:0 501:0 502:0 503:0 504:0 505:0 506:0 507:0 508:0 509:0 510:0 511:0 512:0 513:0 514:2 515:0 516:0 517:0 518:0 519:0 520:0 521:0 522:0 523:0 524:0 525:0 526:0 527:0 528:0 529:0 530:0 531:0 532:0 533:0 534:0 535:0 536:0 537:0 538:0 539:0 540:0 541:0 542:0 543:0 544:0 545:0 546:0 547:0 548:0 549:0 550:0 551:0 552:0 553:0 554:0 555:0 556:0 557:0 558:0 559:0 560:0 561:0 562:0 563:0 564:0 565:0 566:0 567:0 568:0 569:0 570:0 571:0 572:0 573:0 574:0 575:0 576:0 577:0 578:0 579:0 580:0 581:0 582:0 583:0 584:0 585:0 586:0 587:0 588:0 589:0 590:0 591:0 592:0 593:0 594:0 595:0 596:0 597:0 598:0 599:0 600:0 601:0 602:0 603:0 604:0 605:0 606:0 607:0 608:0 609:0 610:0 611:0 612:0 613:0 614:0 615:0 616:0 617:1 618:0 619:1 620:0 621:0 622:0 623:0 624:0 625:0 626:0 627:0 628:0 629:0 630:0 631:0 632:0 633:0 634:0 635:0 636:0 637:0 638:0 639:0 640:0 641:0 642:0 643:0 644:0 645:0 646:0 647:0 648:0 649:0 650:0 651:0 652:0 653:0 654:0 655:0 656:0 657:0 658:0 659:0 660:0 661:0 662:0 663:0 664:0 665:0 666:0 667:0 668:0 669:0 670:0 671:0 672:0 673:0 674:0 675:0 676:0 677:0 678:0 679:0 680:0 681:0 682:0 683:0 684:0 685:0 686:0 687:0 688:0 689:0 690:0 691:0 692:0 693:0 694:0 695:0 696:0 697:0 698:0 699:0 700:0 701:0 702:0 703:0 704:0 705:0 706:0 707:0 708:0 709:0 710:0 711:0 712:0 713:0 714:0 715:0 716:0 717:0 718:0 719:0 720:0 721:0 722:2 723:0 724:0 725:0 726:0 727:0 728:0 729:0 730:0 731:0 732:0 733:0 734:0 735:0 736:0 737:0 738:0 739:0 740:0 741:0 742:0 743:0 744:0 745:0 746:0 747:0 748:0 749:0 750:0 751:0 752:0 753:0 754:0 755:0 756:0 757:0 758:0 759:0 760:0 761:0 762:0 763:0 764:0 765:0 766:0 767:0 768:0 769:0 770:0 771:0 772:0 773:0 774:0 775:0 776:0 777:0 778:0 779:0 780:0 781:0 782:0 783:0 784:0 785:0 786:0 787:0 788:0 789:0 790:0 791:0 792:0 793:0 794:0 795:0 796:0 797:0 798:0 799:0 800:0 801:0 802:0 803:0 804:0 805:0 806:0 807:0 808:0 809:0 810:0 811:0 812:0 813:0 814:0 815:0 816:0 817:0 818:0 819:0 820:0 821:0 822:0 823:0 824:0 825:0 826:0 827:0 828:0 829:0 830:0 831:0 832:0 833:0 834:0 835:0 836:0 837:0 838:0 839:0 840:0 841:0 842:0 843:0 844:0 845:0 846:0 847:0 848:0 849:0 850:0 851:0 852:0 853:0 854:1 855:0 856:0 857:0 858:0 859:0 860:0 861:0 862:0 863:0 864:0 865:0 866:0 867:0 868:0 869:0 870:0 871:0 872:0 873:0 874:0 875:0 876:0 877:0 878:0 879:0 880:0 881:1 882:0 883:0 884:0 885:0 886:0 887:0 888:0 889:0 890:0 891:0 892:0 893:0 894:0 895:0 896:0 897:0 898:0 899:0 900:0 901:0 902:0 903:0 904:0 905:0 906:0 907:0 908:0 909:0 910:0 911:0 912:0 913:0 914:0 915:0 916:0 917:0 918:0 919:0 920:0 921:1 922:0 923:1 924:0 925:0 926:0 927:0 928:0 929:0 930:0 931:0 932:0 933:0 934:0 935:0 936:0 937:0 938:0 939:0 940:0 941:0 942:0 943:1 944:0 945:0 946:0 947:0 948:0 949:0 950:0 951:0 952:0 953:0 954:0 955:0 956:0 957:0 958:0 959:0 960:0 961:0 962:0 963:0 964:0 965:2 966:0 967:0 968:0 969:0 970:0 971:0 972:0 973:0 974:0 975:0 976:0 977:1 978:0 979:0 980:0 981:0 982:0 983:0 984:0 985:0 986:0 987:0 988:0 989:1 990:0 991:0 992:0 993:0 994:0 995:0 996:0 997:1 998:0 999:0 1000:0 
3.8190657871252983e-05 1:0 2:0 3:2 4:0 5:0 6:0 7:0 8:0 9:0 10:4 11:0 12:0 13:0 14:0 15:0 16:0 17:0 18:0 19:0 20:0 21:0 22:0 23:1 24:2 25:0 26:0 27:0 28:0 29:0 30:0 31:0 32:1 33:1 34:0 35:0 36:0 37:0 38:0 39:0 40:0 41:0 42:0 43:0 44:0 45:0 46:0 47:0 48:0 49:0 50:0 51:0 52:1 53:0 54:0 55:0 56:0 57:0 58:0 59:0 60:0 61:0 62:1 63:2 64:0 65:1 66:0 67:0 68:0 69:0 70:0 71:0 72:0 73:0 74:0 75:0 76:0 77:0 78:0 79:0 80:0 81:0 82:0 83:4 84:0 85:0 86:0 87:0 88:0 89:0 90:0 91:0 92:0 93:0 94:0 95:0 96:0 97:0 98:0 99:0 100:0 101:0 102:0 103:0 104:0 105:0 106:0 107:0 108:0 109:0 110:0 111:0 112:0 113:0 114:0 115:0 116:0 117:0 118:0 119:0 120:0 121:0 122:0 123:3 124:0 125:0 126:0 127:0 128:0 129:0 130:0 131:4 132:0 133:0 134:0 135:0 136:0 137:0 138:0 139:0 140:1 141:0 142:3 143:0 144:0 145:0 146:0 147:0 148:1 149:0 150:0 151:0 152:0 153:0 154:0 155:0 156:0 157:0 158:0 159:0 160:1 161:0 162:0 163:0 164:0 165:0 166:0 167:0 168:0 169:0 170:0 171:0 172:0 173:0 174:0 175:0 176:0 177:1 178:0 179:0 180:0 181:0 182:0 183:0 184:0 185:0 186:0 187:0 188:0 189:1 190:0 191:0 192:0 193:0 194:0 195:0 196:0 197:0 198:0 199:0 200:0 201:0 202:0 203:0 204:18 205:0 206:0 207:0 208:0 209:0 210:0 211:0 212:1 213:0 214:0 215:4 216:0 217:0 218:0 219:0 220:0 221:0 222:2 223:0 224:0 225:0 226:0 227:0 228:0 229:0 230:0 231:0 232:0 233:0 234:0 235:0 236:0 237:0 238:0 239:0 240:0 241:0 242:0 243:0 244:0 245:0 246:0 247:0 248:0 249:0 250:0 251:0 252:0 253:0 254:0 255:0 256:0 257:0 258:0 259:0 260:0 261:0 262:0 263:0 264:0 265:0 266:0 267:0 268:1 269:0 270:1 271:0 272:0 273:0 274:0 275:0 276:0 277:0 278:0 279:0 280:0 281:0 282:0 283:0 284:0 285:0 286:0 287:0 288:0 289:0 290:1 291:0 292:0 293:0 294:0 295:0 296:1 297:0 298:0 299:0 300:0 301:0 302:0 303:0 304:0 305:0 306:2 307:0 308:0 309:0 310:0 311:0 312:0 313:0 314:0 315:0 316:0 317:0 318:0 319:0 320:2 321:0 322:0 323:0 324:0 325:0 326:0 327:0 328:0 329:0 330:0 331:0 332:0 333:0 334:0 335:0 336:0 337:0 338:1 339:1 340:0 341:3 342:0 343:0 344:1 345:0 346:0 347:0 348:0 349:0 350:0 351:0 352:3 353:0 354:0 355:0 356:0 357:0 358:0 359:0 360:0 361:0 362:0 363:0 364:1 365:0 366:0 367:0 368:0 369:0 370:0 371:0 372:0 373:0 374:0 375:0 376:0 377:0 378:0 379:0 380:0 381:0 382:0 383:0 384:0 385:0 386:0 387:0 388:0 389:0 390:0 391:0 392:0 393:0 394:0 395:0 396:0 397:0 398:0 399:1 400:0 401:2 402:0 403:0 404:0 405:0 406:0 407:0 408:1 409:0 410:0 411:0 412:0 413:0 414:0 415:0 416:0 417:0 418:0 419:0 420:0 421:0 422:0 423:0 424:0 425:0 426:0 427:0 428:0 429:0 430:0 431:0 432:1 433:0 434:0 435:0 436:0 437:0 438:0 439:0 440:0 441:5 442:0 443:0 444:0 445:0 446:0 447:0 448:0 449:0 450:0 451:0 452:0 453:0 454:0 455:0 456:0 457:0 458:0 459:0 460:0 461:0 462:0 463:0 464:0 465:0 466:0 467:1 468:0 469:0 470:0 471:0 472:0 473:0 474:0 475:0 476:0 477:0 478:0 479:0 480:0 481:0 482:0 483:0 484:1 485:0 486:0 487:0 488:0 489:0 490:0 491:0 492:0 493:0 494:1 495:0 496:0 497:0 498:0 499:0 500:0 501:0 502:0 503:0 504:0 505:0 506:0 507:0 508:0 509:0 510:0 511:0 512:0 513:0 514:0 515:2 516:0 517:0 518:0 519:0 520:0 521:0 522:0 523:0 524:0 525:0 526:0 527:1 528:0 529:0 530:0 531:0 532:0 533:0 534:0 535:0 536:0 537:0 538:0 539:0 540:0 541:0 542:0 543:0 544:0 545:0 546:0 547:0 548:0 549:0 550:0 551:0 552:0 553:0 554:0 555:0 556:0 557:0 558:0 559:0 560:1 561:1 562:0 563:0 564:0 565:0 566:0 567:0 568:0 569:0 570:0 571:0 572:2 573:0 574:3 575:4 576:0 577:0 578:0 579:0 580:0 581:0 582:0 583:0 584:0 585:0 586:0 587:1 588:1 589:0 590:2 591:0 592:0 593:1 594:0 595:0 596:0 597:0 598:0 599:0 600:0 601:0 602:0 603:0 604:0 605:0 606:0 607:0 608:0 609:1 610:0 611:0 612:0 613:0 614:0 615:2 616:0 617:0 618:0 619:0 620:0 621:0 622:0 623:0 624:0 625:0 626:0 627:0 628:0 629:0 630:0 631:0 632:1 633:0 634:0 635:2 636:1 637:0 638:0 639:0 640:0 641:0 642:0 643:0 644:0 645:1 646:0 647:0 648:0 649:0 650:0 651:0 652:0 653:0 654:0 655:0 656:0 657:1 658:0 659:0 660:0 661:0 662:0 663:0 664:0 665:0 666:0 667:0 668:0 669:0 670:0 671:0 672:0 673:0 674:0 675:0 676:0 677:0 678:0 679:0 680:0 681:0 682:1 683:0 684:0 685:0 686:0 687:0 688:0 689:1 690:0 691:0 692:1 693:0 694:0 695:0 696:0 697:4 698:0 699:0 700:0 701:0 702:0 703:0 704:1 705:0 706:0 707:0 708:0 709:0 710:0 711:0 712:0 713:1 714:0 715:0 716:0 717:0 718:0 719:0 720:0 721:0 722:1 723:0 724:0 725:0 726:0 727:0 728:0 729:0 730:0 731:3 732:0 733:0 734:0 735:0 736:0 737:0 738:0 739:0 740:1 741:0 742:0 743:0 744:0 745:1 746:0 747:2 748:1 749:0 750:0 751:4 752:0 753:0 754:0 755:0 756:3 757:0 758:1 759:0 760:0 761:0 762:1 763:0 764:0 765:1 766:0 767:0 768:0 769:0 770:0 771:0 772:0 773:0 774:0 775:0 776:0 777:0 778:0 779:0 780:0 781:0 782:0 783:1 784:0 785:0 786:0 787:0 788:0 789:0 790:0 791:0 792:0 793:0 794:0 795:0 796:0 797:7 798:0 799:0 800:0 801:0 802:0 803:0 804:0 805:0 806:0 807:0 808:0 809:0 810:0 811:0 812:1 813:0 814:0 815:0 816:0 817:0 818:0 819:0 820:0 821:0 822:0 823:0 824:0 825:0 826:0 827:0 828:0 829:0 830:0 831:0 832:0 833:0 834:0 835:0 836:0 837:0 838:0 839:0 840:0 841:0 842:0 843:0 844:0 845:0 846:0 847:0 848:1 849:0 850:0 851:0 852:0 853:0 854:0 855:0 856:1 857:0 858:1 859:0 860:0 861:0 862:0 863:0 864:0 865:0 866:0 867:1 868:0 869:0 870:0 871:0 872:0 873:0 874:0 875:0 876:0 877:0 878:0 879:0 880:0 881:0 882:0 883:0 884:0 885:0 886:0 887:0 888:1 889:0 890:0 891:0 892:0 893:0 894:0 895:0 896:0 897:0 898:0 899:0 900:0 901:0 902:0 903:0 904:0 905:0 906:0 907:0 908:0 909:1 910:0 911:0 912:0 913:0 914:0 915:0 916:0 917:0 918:0 919:0 920:0 921:0 922:0 923:0 924:0 925:0 926:0 927:0 928:0 929:0 930:0 931:0 932:0 933:0 934:0 935:0 936:0 937:0 938:0 939:0 940:0 941:0 942:0 943:2 944:0 945:0 946:0 947:0 948:0 949:0 950:1 951:0 952:0 953:0 954:0 955:0 956:0 957:0 958:0 959:0 960:0 961:0 962:0 963:0 964:0 965:0 966:0 967:0 968:0 969:0 970:0 971:0 972:0 973:0 974:0 975:0 976:0 977:0 978:0 979:0 980:0 981:1 982:0 983:0 984:0 985:0 986:0 987:0 988:0 989:0 990:0 991:0 992:0 993:0 994:0 995:2 996:0 997:0 998:0 999:0 1000:1 
0.057764058597016131 1:0 2:0 3:0 4:0 5:0 6:0 7:0 8:0 9:0 10:0 11:0 12:0 13:0 14:0 15:0 16:0 17:0 18:0 19:0 20:0 21:0 22:0 23:0 24:0 25:0 26:0 27:0 28:0 29:0 30:0 31:0 32:0 33:0 34:0 35:0 36:0 37:0 38:0 39:0 40:0 41:0 42:0 43:0 44:0 45:0 46:0 47:0 48:0 49:0 50:0 51:0 52:0 53:0 54:0 55:0 56:0 57:0 58:0 59:0 60:0 61:0 62:0 63:0 64:0 65:0 66:0 67:0 68:0 69:0 70:0 71:0 72:0 73:0 74:0 75:0 76:0 77:0 78:0 79:0 80:0 81:0 82:0 83:0 84:0 85:0 86:0 87:0 88:0 89:0 90:0 91:0 92:0 93:0 94:0 95:0 96:0 97:0 98:1 99:0 100:0 101:0 102:0 103:0 104:0 105:0 106:0 107:0 108:0 109:0 110:0 111:0 112:0 113:0 114:0 115:0 116:0 117:0 118:0 119:0 120:0 121:0 122:0 123:0 124:0 125:0 126:0 127:0 128:0 129:0 130:0 131:0 132:0 133:0 134:0 135:0 136:0 137:0 138:0 139:0 140:0 141:0 142:0 143:0 144:0 145:0 146:0 147:0 148:0 149:0 150:0 151:0 152:0 153:0 154:0 155:0 156:0 157:0 158:0 159:0 160:0 161:0 162:0 163:0 164:0 165:0 166:1 167:0 168:0 169:0 170:0 171:0 172:0 173:0 174:0 175:0 176:0 177:1 178:0 179:0 180:0 181:1 182:0 183:0 184:0 185:0 186:0 187:0 188:0 189:0 190:0 191:0 192:0 193:0 194:0 195:0 196:0 197:0 198:0 199:0 200:0 201:0 202:0 203:0 204:0 205:0 206:0 207:0 208:0 209:0 210:0 211:0 212:0 213:0 214:0 215:0 216:0 217:0 218:0 219:0 220:0 221:0 222:0 223:0 224:0 225:0 226:0 227:0 228:0 229:0 230:0 231:0 232:0 233:0 234:0 235:0 236:0 237:0 238:0 239:0 240:0 241:0 242:0 243:0 244:0 245:0 246:0 247:0 248:0 249:0 250:0 251:0 252:0 253:0 254:0 255:0 256:0 257:0 258:0 259:0 260:0 261:0 262:1 263:0 264:0 265:0 266:0 267:0 268:0 269:0 270:0 271:0 272:1 273:0 274:0 275:0 276:0 277:0 278:0 279:0 280:0 281:0 282:0 283:0 284:0 285:0 286:0 287:0 288:0 289:0 290:0 291:0 292:0 293:0 294:0 295:0 296:0 297:0 298:0 299:0 300:0 301:0 302:0 303:0 304:0 305:0 306:0 307:0 308:0 309:0 310:0 311:0 312:0 313:0 314:0 315:0 316:0 317:0 318:0 319:0 320:0 321:0 322:0 323:0 324:0 325:0 326:0 327:0 328:0 329:0 330:0 331:0 332:0 333:0 334:0 335:0 336:0 337:0 338:0 339:0 340:0 341:0 342:0 343:0 344:0 345:0 346:0 347:0 348:0 349:0 350:0 351:0 352:0 353:0 354:0 355:0 356:0 357:0 358:0 359:0 360:0 361:0 362:0 363:0 364:0 365:0 366:0 367:0 368:0 369:0 370:0 371:0 372:0 373:0 374:0 375:0 376:0 377:0 378:0 379:0 380:0 381:0 382:0 383:0 384:0 385:0 386:0 387:0 388:0 389:0 390:0 391:0 392:0 393:0 394:0 395:0 396:0 397:0 398:0 399:0 400:0 401:0 402:0 403:0 404:0 405:0 406:0 407:0 408:0 409:0 410:0 411:0 412:0 413:0 414:0 415:0 416:0 417:0 418:0 419:0 420:0 421:0 422:0 423:0 424:0 425:0 426:0 427:0 428:0 429:0 430:0 431:0 432:0 433:0 434:0 435:0 436:0 437:0 438:0 439:1 440:0 441:0 442:0 443:0 444:0 445:0 446:0 447:0 448:0 449:0 450:0 451:0 452:1 453:0 454:0 455:0 456:0 457:0 458:0 459:0 460:0 461:0 462:0 463:0 464:0 465:0 466:0 467:0 468:0 469:0 470:0 471:0 472:0 473:0 474:0 475:0 476:0 477:0 478:0 479:0 480:0 481:0 482:0 483:0 484:0 485:0 486:0 487:1 488:0 489:0 490:0 491:0 492:0 493:0 494:0 495:0 496:0 497:0 498:0 499:0 500:0 501:0 502:0 503:0 504:0 505:0 506:0 507:0 508:0 509:0 510:1 511:0 512:0 513:0 514:0 515:0 516:0 517:0 518:0 519:0 520:0 521:0 522:0 523:0 524:0 525:0 526:0 527:0 528:0 529:0 530:0 531:0 532:0 533:0 534:0 535:0 536:0 537:0 538:0 539:0 540:0 541:0 542:0 543:0 544:0 545:0 546:0 547:0 548:0 549:0 550:0 551:0 552:0 553:0 554:0 555:0 556:0 557:0 558:0 559:0 560:0 561:0 562:0 563:0 564:0 565:0 566:0 567:0 568:0 569:0 570:0 571:0 572:0 573:0 574:0 575:0 576:0 577:0 578:0 579:0 580:0 581:0 582:0 583:0 584:0 585:0 586:0 587:0 588:0 589:0 590:0 591:0 592:0 593:0 594:0 595:0 596:0 597:0 598:0 599:0 600:0 601:0 602:0 603:0 604:0 605:0 606:0 607:1 608:0 609:0 610:0 611:0 612:0 613:0 614:0 615:0 616:0 617:0 618:0 619:1 620:0 621:0 622:0 623:0 624:0 625:0 626:0 627:0 628:0 629:0 630:0 631:0 632:0 633:0 634:0 635:0 636:0 637:0 638:0 639:0 640:0 641:0 642:0 643:0 644:0 645:0 646:0 647:0 648:0 649:0 650:0 651:0 652:0 653:0 654:0 655:0 656:0 657:0 658:0 659:0 660:0 661:0 662:0 663:0 664:0 665:0 666:0 667:0 668:0 669:0 670:0 671:0 672:0 673:0 674:0 675:0 676:0 677:0 678:0 679:0 680:0 681:0 682:0 683:0 684:0 685:0 686:0 687:0 688:0 689:0 690:0 691:0 692:0 693:0 694:0 695:0 696:0 697:0 698:0 699:0 700:0 701:0 702:0 703:0 704:0 705:0 706:0 707:0 708:0 709:0 710:0 711:0 712:0 713:0 714:0 715:0 716:0 717:0 718:0 719:0 720:0 721:0 722:0 723:0 724:0 725:0 726:0 727:0 728:0 729:0 730:0 731:0 732:0 733:0 734:0 735:0 736:0 737:0 738:0 739:0 740:0 741:0 742:0 743:0 744:0 745:0 746:0 747:0 748:0 749:0 750:0 751:0 752:0 753:0 754:0 755:0 756:0 757:0 758:0 759:0 760:0 761:0 762:0 763:0 764:0 765:0 766:0 767:0 768:0 769:0 770:0 771:0 772:0 773:0 774:0 775:0 776:0 777:0 778:0 779:0 780:0 781:0 782:0 783:0 784:0 785:0 786:0 787:0 788:0 789:0 790:0 791:0 792:0 793:0 794:0 795:0 796:0 797:0 798:0 799:0 800:0 801:0 802:0 803:0 804:0 805:0 806:0 807:0 808:0 809:0 810:0 811:0 812:0 813:0 814:0 815:0 816:0 817:0 818:0 819:1 820:0 821:0 822:0 823:0 824:0 825:0 826:0 827:0 828:0 829:0 830:0 831:0 832:0 833:0 834:0 835:0 836:0 837:0 838:0 839:0 840:0 841:0 842:0 843:0 844:0 845:0 846:0 847:0 848:0 849:0 850:0 851:0 852:0 853:0 854:0 855:0 856:0 857:0 858:0 859:0 860:0 861:0 862:0 863:0 864:0 865:0 866:0 867:0 868:0 869:0 870:0 871:0 872:0 873:0 874:0 875:1 876:0 877:0 878:0 879:0 880:0 881:0 882:1 883:0 884:0 885:0 886:0 887:0 888:0 889:0 890:0 891:0 892:0 893:0 894:0 895:0 896:0 897:0 898:0 899:0 900:0 901:0 902:0 903:0 904:0 905:0 906:0 907:0 908:0 909:0 910:0 911:0 912:0 913:0 914:0 915:0 916:0 917:0 918:0 919:0 920:0 921:0 922:0 923:0 924:0 925:0 926:0 927:0 928:0 929:0 930:0 931:0 932:0 933:0 934:0 935:0 936:0 937:0 938:0 939:0 940:0 941:0 942:0 943:0 944:0 945:0 946:0 947:0 948:0 949:0 950:0 951:0 952:0 953:0 954:0 955:0 956:0 957:0 958:0 959:0 960:0 961:0 962:0 963:0 964:0 965:0 966:0 967:1 968:0 969:0 970:0 971:0 972:0 973:1 974:0 975:0 976:0 977:0 978:0 979:0 980:0 981:0 982:0 983:0 984:0 985:0 986:0 987:0 988:0 989:0 990:0 991:0 992:0 993:0 994:0 995:0 996:0 997:0 998:0 999:0 1000:0 
0.005243707456112523 1:0 2:0 3:0 4:0 5:0 6:0 7:0 8:0 9:0 10:0 11:0 12:0 13:0 14:0 15:0 16:0 17:0 18:0 19:0 20:0 21:0 22:0 23:0 24:0 25:0 26:1 27:0 28:0 29:0 30:0 31:0 32:0 33:0 34:0 35:0 36:0 37:0 38:0 39:0 40:0 41:0 42:0 43:0 44:0 45:0 46:0 47:0 48:0 49:0 50:0 51:0 52:0 53:0 54:0 55:0 56:0 57:0 58:0 59:0 60:0 61:0 62:0 63:0 64:0 65:0 66:0 67:0 68:0 69:0 70:0 71:0 72:0 73:0 74:0 75:0 76:0 77:0 78:0 79:0 80:0 81:0 82:0 83:0 84:0 85:0 86:0 87:0 88:0 89:0 90:0 91:0 92:0 93:0 94:0 95:0 96:0 97:0 98:0 99:0 100:0 101:0 102:0 103:0 104:0 105:0 106:0 107:0 108:0 109:0 110:0 111:0 112:0 113:0 114:0 115:0 116:0 117:0 118:0 119:0 120:0 121:0 122:0 123:0 124:0 125:0 126:0 127:0 128:0 129:0 130:0 131:0 132:0 133:0 134:0 135:0 136:0 137:0 138:0 139:0 140:0 141:0 142:0 143:0 144:0 145:0 146:0 147:0 148:1 149:0 150:0 151:0 152:0 153:0 154:0 155:0 156:0 157:0 158:0 159:0 160:0 161:0 162:0 163:0 164:0 165:0 166:0 167:0 168:0 169:0 170:0 171:0 172:0 173:0 174:0 175:0 176:0 177:0 178:0 179:0 180:0 181:0 182:0 183:0 184:0 185:0 186:0 187:0 188:0 189:0 190:0 191:0 192:0 193:0 194:0 195:0 196:0 197:0 198:0 199:0 200:0 201:0 202:0 203:0 204:0 205:0 206:0 207:0 208:0 209:0 210:0 211:0 212:0 213:0 214:0 215:0 216:0 217:0 218:0 219:0 220:0 221:0 222:0 223:0 224:0 225:0 226:0 227:0 228:0 229:0 230:0 231:0 232:0 233:0 234:0 235:0 236:0 237:0 238:0 239:0 240:0 241:0 242:0 243:0 244:0 245:0 246:0 247:0 248:0 249:0 250:0 251:0 252:0 253:0 254:0 255:0 256:0 257:0 258:0 259:0 260:0 261:0 262:0 263:0 264:0 265:0 266:0 267:0 268:0 269:0 270:0 271:0 272:0 273:0 274:0 275:0 276:0 277:0 278:0 279:0 280:0 281:0 282:0 283:0 284:0 285:0 286:0 287:0 288:0 289:0 290:0 291:0 292:0 293:0 294:0 295:0 296:1 297:0 298:0 299:0 300:0 301:1 302:0 303:0 304:0 305:0 306:0 307:0 308:0 309:0 310:0 311:0 312:0 313:0 314:0 315:0 316:0 317:0 318:0 319:0 320:0 321:0 322:0 323:0 324:0 325:0 326:0 327:0 328:0 329:0 330:0 331:0 332:0 333:0 334:0 335:0 336:0 337:0 338:0 339:0 340:0 341:0 342:0 343:0 344:0 345:0 346:0 347:0 348:0 349:0 350:0 351:0 352:0 353:0 354:0 355:0 356:0 357:0 358:0 359:0 360:0 361:0 362:0 363:0 364:0 365:0 366:0 367:0 368:0 369:0 370:0 371:0 372:0 373:0 374:0 375:0 376:0 377:0 378:0 379:0 380:0 381:0 382:0 383:0 384:0 385:0 386:0 387:0 388:0 389:0 390:0 391:0 392:0 393:0 394:0 395:0 396:0 397:0 398:0 399:0 400:1 401:0 402:1 403:0 404:0 405:0 406:0 407:0 408:0 409:0 410:0 411:0 412:0 413:0 414:0 415:0 416:0 417:0 418:0 419:0 420:1 421:1 422:0 423:0 424:0 425:0 426:0 427:0 428:0 429:0 430:0 431:0 432:0 433:0 434:0 435:0 436:0 437:0 438:0 439:0 440:0 441:0 442:0 443:0 444:0 445:0 446:0 447:0 448:0 449:0 450:0 451:0 452:0 453:0 454:0 455:0 456:0 457:0 458:0 459:0 460:0 461:0 462:0 463:0 464:0 465:0 466:0 467:0 468:0 469:0 470:0 471:0 472:0 473:0 474:0 475:0 476:0 477:0 478:0 479:0 480:0 481:0 482:0 483:0 484:0 485:0 486:0 487:0 488:0 489:1 490:0 491:0 492:0 493:0 494:0 495:0 496:0 497:0 498:0 499:0 500:0 501:0 502:0 503:0 504:0 505:0 506:0 507:0 508:1 509:0 510:0 511:0 512:0 513:0 514:0 515:0 516:0 517:0 518:0 519:0 520:0 521:0 522:0 523:0 524:0 525:0 526:0 527:0 528:0 529:0 530:0 531:0 532:0 533:0 534:0 535:0 536:0 537:0 538:0 539:0 540:0 541:0 542:0 543:0 544:0 545:0 546:0 547:0 548:0 549:0 550:0 551:0 552:0 553:0 554:0 555:0 556:0 557:0 558:0 559:0 560:0 561:0 562:0 563:0 564:0 565:0 566:0 567:0 568:0 569:0 570:0 571:0 572:0 573:0 574:0 575:0 576:0 577:0 578:0 579:0 580:0 581:0 582:0 583:0 584:0 585:0 586:0 587:0 588:0 589:0 590:0 591:0 592:0 593:0 594:0 595:0 596:0 597:0 598:0 599:0 600:0 601:0 602:1 603:0 604:0 605:0 606:0 607:0 608:0 609:0 610:0 611:0 612:0 613:0 614:0 615:1 616:0 617:0 618:0 619:0 620:0 621:0 622:0 623:0 624:0 625:0 626:0 627:0 628:0 629:0 630:0 631:0 632:0 633:0 634:0 635:0 636:0 637:0 638:0 639:0 640:0 641:0 642:0 643:0 644:0 645:0 646:0 647:0 648:0 649:0 650:0 651:0 652:0 653:0 654:0 655:0 656:0 657:0 658:0 659:0 660:0 661:0 662:0 663:0 664:0 665:0 666:0 667:0 668:0 669:0 670:0 671:0 672:0 673:0 674:0 675:0 676:0 677:0 678:0 679:0 680:0 681:0 682:0 683:0 684:0 685:0 686:0 687:0 688:0 689:0 690:0 691:0 692:0 693:0 694:0 695:0 696:0 697:0 698:0 699:0 700:0 701:0 702:0 703:0 704:0 705:0 706:0 707:0 708:0 709:0 710:0 711:0 712:0 713:0 714:0 715:0 716:0 717:0 718:0 719:0 720:0 721:0 722:0 723:0 724:0 725:0 726:0 727:0 728:0 729:0 730:0 731:0 732:0 733:0 734:0 735:0 736:0 737:0 738:0 739:0 740:0 741:0 742:0 743:0 744:0 745:0 746:0 747:0 748:0 749:0 750:0 751:0 752:0 753:0 754:0 755:0 756:0 757:0 758:0 759:0 760:0 761:0 762:0 763:0 764:0 765:0 766:0 767:0 768:0 769:0 770:0 771:0 772:0 773:0 774:0 775:0 776:0 777:0 778:0 779:0 780:0 781:0 782:0 783:0 784:0 785:0 786:0 787:0 788:0 789:0 790:0 791:0 792:0 793:0 794:0 795:0 796:0 797:0 798:0 799:0 800:0 801:0 802:0 803:0 804:0 805:0 806:0 807:0 808:0 809:0 810:0 811:0 812:0 813:0 814:0 815:0 816:0 817:0 818:0 819:0 820:0 821:0 822:0 823:0 824:0 825:0 826:0 827:0 828:0 829:0 830:0 831:0 832:0 833:0 834:0 835:0 836:0 837:0 838:0 839:0 840:0 841:0 842:0 843:0 844:0 845:0 846:0 847:0 848:0 849:0 850:0 851:0 852:0 853:0 854:0 855:0 856:0 857:0 858:0 859:0 860:0 861:0 862:0 863:0 864:0 865:0 866:0 867:0 868:0 869:0 870:0 871:0 872:0 873:0 874:0 875:0 876:0 877:0 878:0 879:0 880:0 881:0 882:0 883:0 884:0 885:0 886:0 887:0 888:0 889:0 890:0 891:0 892:0 893:0 894:0 895:0 896:0 897:0 898:0 899:0 900:0 901:0 902:0 903:0 904:0 905:0 906:0 907:0 908:0 909:0 910:0 911:0 912:0 913:0 914:0 915:0 916:0 917:0 918:0 919:0 920:0 921:0 922:0 923:0 924:0 925:0 926:0 927:0 928:0 929:0 930:0 931:0 932:0 933:0 934:0 935:0 936:0 937:0 938:0 939:0 940:0 941:0 942:0 943:0 944:0 945:0 946:0 947:0 948:0 949:0 950:0 951:0 952:0 953:0 954:0 955:0 956:0 957:0 958:0 959:0 960:0 961:0 962:0 963:0 964:1 965:0 966:0 967:0 968:0 969:0 970:0 971:0 972:0 973:0 974:0 975:0 976:0 977:0 978:0 979:0 980:0 981:0 982:0 983:0 984:0 985:0 986:0 987:0 988:0 989:0 990:0 991:0 992:0 993:0 994:0 995:0 996:0 997:0 998:0 999:0 1000:0 
0.0017513420731787436 1:0 2:0 3:0 4:0 5:0 6:0 7:0 8:0 9:0 10:0 11:0 12:0 13:0 14:0 15:0 16:0 17:0 18:0 19:0 20:0 21:0 22:0 23:0 24:0 25:0 26:0 27:0 28:0 29:0 30:0 31:0 32:0 33:0 34:1 35:0 36:0 37:0 38:0 39:0 40:0 41:0 42:0 43:0 44:0 45:0 46:1 47:0 48:0 49:0 50:0 51:0 52:0 53:0 54:0 55:0 56:0 57:0 58:0 59:0 60:0 61:0 62:0 63:0 64:0 65:0 66:0 67:0 68:0 69:0 70:0 71:0 72:0 73:0 74:0 75:0 76:0 77:0 78:0 79:0 80:0 81:0 82:0 83:0 84:0 85:0 86:0 87:0 88:0 89:0 90:0 91:0 92:0 93:0 94:0 95:0 96:0 97:0 98:0 99:0 100:0 101:0 102:0 103:0 104:0 105:0 106:0 107:0 108:0 109:0 110:0 111:0 112:0 113:0 114:0 115:1 116:0 117:0 118:0 119:0 120:0 121:0 122:0 123:0 124:0 125:0 126:0 127:0 128:0 129:0 130:0 131:0 132:0 133:0 134:0 135:0 136:0 137:0 138:0 139:0 140:0 141:0 142:0 143:0 144:0 145:0 146:0 147:0 148:0 149:0 150:0 151:0 152:0 153:0 154:0 155:0 156:0 157:0 158:0 159:0 160:0 161:0 162:0 163:0 164:0 165:0 166:0 167:0 168:0 169:0 170:0 171:0 172:0 173:0 174:0 175:0 176:0 177:0 178:0 179:0 180:0 181:0 182:0 183:0 184:0 185:0 186:0 187:0 188:0 189:0 190:0 191:0 192:0 193:0 194:0 195:0 196:0 197:0 198:0 199:0 200:0 201:0 202:0 203:0 204:0 205:0 206:0 207:1 208:0 209:0 210:0 211:0 212:0 213:0 214:0 215:0 216:0 217:0 218:0 219:0 220:0 221:0 222:0 223:0 224:0 225:0 226:0 227:0 228:0 229:0 230:0 231:0 232:0 233:0 234:0 235:0 236:0 237:0 238:0 239:0 240:0 241:0 242:0 243:0 244:0 245:0 246:0 247:0 248:0 249:0 250:0 251:0 252:0 253:0 254:0 255:0 256:0 257:0 258:0 259:0 260:0 261:0 262:0 263:0 264:0 265:0 266:0 267:0 268:0 269:0 270:0 271:0 272:0 273:0 274:0 275:1 276:0 277:0 278:0 279:0 280:0 281:0 282:0 283:0 284:0 285:0 286:0 287:0 288:0 289:0 290:0 291:0 292:0 293:0 294:0 295:0 296:0 297:0 298:0 299:0 300:0 301:0 302:0 303:0 304:0 305:0 306:0 307:0 308:0 309:0 310:0 311:0 312:0 313:0 314:0 315:0 316:0 317:0 318:0 319:0 320:0 321:0 322:0 323:0 324:0 325:0 326:0 327:0 328:0 329:0 330:0 331:0 332:0 333:0 334:0 335:0 336:0 337:0 338:0 339:0 340:0 341:0 342:0 343:1 344:0 345:0 346:0 347:0 348:0 349:0 350:0 351:0 352:0 353:0 354:0 355:0 356:0 357:0 358:0 359:0 360:0 361:0 362:0 363:0 364:0 365:0 366:0 367:0 368:0 369:0 370:0 371:0 372:0 373:0 374:0 375:0 376:0 377:0 378:0 379:0 380:0 381:0 382:0 383:0 384:0 385:0 386:0 387:0 388:0 389:0 390:0 391:0 392:0 393:0 394:0 395:0 396:1 397:0 398:0 399:0 400:0 401:1 402:0 403:0 404:0 405:0 406:0 407:0 408:0 409:0 410:0 411:0 412:0 413:0 414:0 415:1 416:0 417:0 418:0 419:0 420:0 421:0 422:0 423:0 424:0 425:0 426:0 427:0 428:0 429:0 430:0 431:0 432:0 433:0 434:0 435:0 436:0 437:0 438:0 439:0 440:0 441:0 442:0 443:0 444:0 445:0 446:0 447:0 448:0 449:0 450:0 451:0 452:0 453:0 454:0 455:0 456:0 457:0 458:0 459:0 460:0 461:0 462:0 463:0 464:0 465:0 466:0 467:0 468:0 469:0 470:0 471:0 472:0 473:0 474:0 475:0 476:0 477:0 478:0 479:0 480:0 481:0 482:0 483:0 484:0 485:0 486:0 487:0 488:0 489:0 490:0 491:0 492:0 493:0 494:0 495:0 496:0 497:0 498:1 499:0 500:0 501:0 502:0 503:0 504:0 505:0 506:0 507:0 508:0 509:1 510:0 511:0 512:0 513:0 514:0 515:0 516:0 517:0 518:0 519:0 520:0 521:0 522:0 523:0 524:0 525:0 526:0 527:0 528:0 529:0 530:0 531:0 532:0 533:0 534:0 535:0 536:0 537:0 538:0 539:0 540:0 541:0 542:0 543:0 544:0 545:0 546:0 547:0 548:1 549:0 550:0 551:0 552:0 553:0 554:0 555:0 556:0 557:0 558:0 559:0 560:2 561:0 562:0 563:0 564:0 565:0 566:0 567:0 568:0 569:0 570:0 571:0 572:0 573:0 574:0 575:0 576:0 577:0 578:0 579:1 580:0 581:0 582:0 583:0 584:0 585:0 586:0 587:0 588:0 589:0 590:1 591:0 592:0 593:0 594:0 595:0 596:0 597:0 598:0 599:0 600:0 601:0 602:0 603:0 604:0 605:0 606:0 607:0 608:0 609:0 610:0 611:0 612:0 613:0 614:0 615:0 616:0 617:0 618:0 619:0 620:0 621:0 622:0 623:0 624:0 625:0 626:0 627:0 628:0 629:0 630:0 631:0 632:0 633:0 634:0 635:0 636:0 637:0 638:0 639:0 640:0 641:0 642:0 643:0 644:0 645:0 646:0 647:0 648:0 649:0 650:0 651:0 652:0 653:0 654:0 655:0 656:1 657:0 658:0 659:0 660:0 661:0 662:0 663:0 664:0 665:0 666:0 667:0 668:0 669:0 670:0 671:0 672:0 673:0 674:0 675:0 676:0 677:0 678:0 679:0 680:0 681:0 682:0 683:0 684:0 685:0 686:0 687:0 688:0 689:0 690:0 691:0 692:0 693:0 694:0 695:0 696:0 697:0 698:0 699:0 700:0 701:0 702:0 703:0 704:0 705:0 706:0 707:0 708:0 709:0 710:0 711:0 712:0 713:0 714:0 715:1 716:0 717:0 718:0 719:0 720:0 721:0 722:0 723:0 724:0 725:1 726:0 727:0 728:0 729:0 730:0 731:0 732:0 733:0 734:0 735:0 736:0 737:0 738:0 739:0 740:0 741:0 742:0 743:0 744:0 745:0 746:0 747:0 748:0 749:0 750:0 751:0 752:0 753:0 754:0 755:0 756:0 757:1 758:0 759:0 760:0 761:0 762:0 763:0 764:0 765:0 766:0 767:0 768:0 769:0 770:0 771:0 772:0 773:0 774:0 775:0 776:0 777:0 778:0 779:0 780:0 781:0 782:0 783:0 784:0 785:0 786:0 787:0 788:0 789:0 790:0 791:0 792:0 793:0 794:0 795:0 796:0 797:0 798:0 799:0 800:0 801:0 802:0 803:0 804:0 805:0 806:0 807:0 808:0 809:0 810:0 811:0 812:0 813:0 814:0 815:0 816:0 817:0 818:0 819:0 820:1 821:0 822:0 823:0 824:0 825:0 826:0 827:0 828:0 829:0 830:0 831:0 832:0 833:0 834:0 835:0 836:0 837:0 838:0 839:0 840:0 841:0 842:0 843:0 844:0 845:0 846:0 847:0 848:0 849:0 850:0 851:0 852:0 853:0 854:0 855:0 856:0 857:0 858:0 859:0 860:0 861:0 862:0 863:0 864:0 865:0 866:0 867:0 868:0 869:0 870:0 871:0 872:0 873:0 874:0 875:0 876:0 877:0 878:0 879:0 880:0 881:0 882:0 883:0 884:0 885:0 886:0 887:0 888:0 889:0 890:0 891:0 892:0 893:0 894:0 895:0 896:0 897:0 898:0 899:0 900:0 901:0 902:0 903:0 904:0 905:0 906:0 907:0 908:0 909:1 910:0 911:0 912:0 913:0 914:0 915:0 916:0 917:0 918:0 919:0 920:0 921:0 922:0 923:0 924:0 925:0 926:0 927:0 928:0 929:0 930:0 931:0 932:0 933:0 934:0 935:0 936:0 937:0 938:0 939:0 940:0 941:0 942:0 943:0 944:0 945:0 946:0 947:0 948:0 949:0 950:0 951:0 952:0 953:0 954:0 955:0 956:0 957:0 958:0 959:0 960:0 961:0 962:0 963:0 964:1 965:0 966:0 967:0 968:0 969:0 970:0 971:0 972:0 973:0 974:0 975:0 976:1 977:0 978:0 979:0 980:0 981:0 982:0 983:0 984:0 985:0 986:1 987:0 988:0 989:0 990:0 991:0 992:0 993:0 994:0 995:1 996:0 997:0 998:1 999:0 1000:0 
0.0062370739549636178 1:0 2:0 3:0 4:0 5:0 6:0 7:0 8:0 9:0 10:1 11:0 12:0 13:0 14:0 15:0 16:0 17:0 18:0 19:0 20:0 21:0 22:0 23:1 24:2 25:0 26:0 27:0 28:0 29:0 30:0 31:0 32:0 33:0 34:0 35:0 36:0 37:0 38:0 39:0 40:0 41:0 42:0 43:0 44:0 45:0 46:0 47:0 48:0 49:0 50:0 51:0 52:0 53:0 54:0 55:0 56:0 57:1 58:0 59:0 60:0 61:0 62:0 63:0 64:0 65:2 66:0 67:0 68:0 69:0 70:0 71:0 72:0 73:0 74:0 75:0 76:0 77:0 78:0 79:0 80:0 81:0 82:0 83:0 84:0 85:0 86:0 87:0 88:0 89:0 90:0 91:0 92:0 93:0 94:0 95:0 96:0 97:0 98:0 99:1 100:0 101:0 102:0 103:0 104:0 105:0 106:0 107:0 108:0 109:0 110:0 111:0 112:0 113:0 114:0 115:0 116:0 117:0 118:0 119:0 120:0 121:0 122:0 123:3 124:0 125:0 126:0 127:0 128:0 129:0 130:0 131:0 132:0 133:0 134:0 135:0 136:0 137:0 138:0 139:0 140:0 141:0 142:0 143:0 144:0 145:0 146:0 147:0 148:0 149:0 150:0 151:0 152:0 153:0 154:0 155:0 156:0 157:0 158:0 159:0 160:0 161:0 162:0 163:0 164:0 165:0 166:1 167:0 168:1 169:0 170:0 171:0 172:0 173:0 174:0 175:0 176:0 177:0 178:0 179:0 180:0 181:0 182:0 183:0 184:0 185:0 186:0 187:0 188:0 189:0 190:0 191:0 192:0 193:0 194:0 195:0 196:0 197:0 198:1 199:0 200:0 201:0 202:0 203:0 204:2 205:0 206:0 207:0 208:0 209:0 210:0 211:0 212:0 213:0 214:0 215:0 216:0 217:0 218:0 219:0 220:1 221:0 222:0 223:0 224:0 225:0 226:0 227:0 228:0 229:0 230:0 231:0 232:0 233:0 234:0 235:0 236:0 237:0 238:0 239:0 240:0 241:0 242:0 243:0 244:0 245:0 246:0 247:0 248:0 249:0 250:0 251:0 252:0 253:0 254:0 255:0 256:0 257:0 258:0 259:0 260:0 261:0 262:0 263:0 264:0 265:0 266:0 267:0 268:0 269:0 270:1 271:0 272:0 273:0 274:0 275:0 276:0 277:0 278:0 279:0 280:0 281:0 282:0 283:0 284:0 285:0 286:0 287:1 288:3 289:0 290:0 291:0 292:0 293:0 294:0 295:0 296:0 297:0 298:0 299:0 300:0 301:0 302:0 303:0 304:0 305:0 306:0 307:0 308:0 309:0 310:0 311:0 312:0 313:0 314:0 315:0 316:0 317:0 318:0 319:0 320:0 321:0 322:0 323:0 324:0 325:0 326:0 327:0 328:0 329:0 330:0 331:1 332:0 333:0 334:0 335:0 336:0 337:0 338:0 339:0 340:0 341:0 342:0 343:0 344:0 345:0 346:0 347:0 348:0 349:0 350:0 351:0 352:0 353:0 354:0 355:0 356:0 357:0 358:0 359:0 360:0 361:0 362:0 363:0 364:0 365:0 366:0 367:2 368:0 369:0 370:0 371:0 372:0 373:0 374:0 375:0 376:0 377:0 378:0 379:0 380:0 381:0 382:0 383:0 384:0 385:0 386:0 387:0 388:0 389:0 390:0 391:0 392:1 393:0 394:0 395:0 396:1 397:0 398:0 399:0 400:0 401:1 402:0 403:0 404:0 405:0 406:0 407:0 408:0 409:0 410:0 411:0 412:0 413:0 414:0 415:0 416:0 417:0 418:0 419:0 420:0 421:1 422:0 423:0 424:0 425:0 426:0 427:0 428:1 429:0 430:0 431:1 432:0 433:0 434:0 435:0 436:0 437:0 438:0 439:0 440:0 441:2 442:0 443:0 444:0 445:0 446:0 447:0 448:0 449:0 450:0 451:0 452:0 453:0 454:0 455:0 456:0 457:0 458:0 459:0 460:0 461:0 462:0 463:0 464:0 465:0 466:0 467:0 468:0 469:0 470:0 471:0 472:0 473:0 474:0 475:0 476:0 477:0 478:0 479:0 480:0 481:0 482:0 483:0 484:0 485:0 486:0 487:0 488:0 489:0 490:0 491:0 492:0 493:0 494:0 495:0 496:0 497:0 498:0 499:0 500:0 501:0 502:0 503:0 504:0 505:0 506:1 507:0 508:0 509:0 510:0 511:0 512:0 513:0 514:0 515:0 516:0 517:0 518:0 519:0 520:0 521:0 522:0 523:1 524:0 525:2 526:0 527:0 528:0 529:0 530:0 531:0 532:0 533:0 534:0 535:0 536:0 537:0 538:0 539:0 540:0 541:1 542:0 543:0 544:0 545:0 546:0 547:0 548:1 549:0 550:0 551:0 552:0 553:0 554:0 555:0 556:0 557:0 558:0 559:0 560:0 561:0 562:0 563:0 564:0 565:0 566:0 567:0 568:0 569:0 570:0 571:0 572:1 573:0 574:0 575:0 576:0 577:0 578:0 579:0 580:0 581:0 582:0 583:0 584:0 585:0 586:0 587:0 588:0 589:0 590:0 591:0 592:0 593:0 594:0 595:0 596:0 597:0 598:0 599:0 600:0 601:0 602:0 603:0 604:0 605:0 606:0 607:0 608:0 609:0 610:0 611:0 612:0 613:0 614:0 615:0 616:0 617:0 618:0 619:0 620:0 621:0 622:0 623:0 624:0 625:0 626:0 627:0 628:0 629:0 630:0 631:0 632:0 633:0 634:0 635:0 636:0 637:0 638:0 639:0 640:0 641:0 642:0 643:0 644:0 645:0 646:0 647:0 648:0 649:0 650:0 651:0 652:0 653:0 654:0 655:0 656:1 657:0 658:0 659:1 660:0 661:0 662:0 663:0 664:0 665:0 666:0 667:0 668:0 669:0 670:0 671:0 672:0 673:0 674:0 675:0 676:0 677:0 678:0 679:0 680:0 681:0 682:0 683:1 684:0 685:0 686:0 687:0 688:0 689:0 690:0 691:0 692:0 693:0 694:0 695:1 696:0 697:0 698:0 699:0 700:0 701:0 702:0 703:0 704:0 705:0 706:0 707:0 708:0 709:0 710:0 711:0 712:0 713:0 714:0 715:0 716:0 717:0 718:0 719:0 720:0 721:0 722:2 723:0 724:0 725:0 726:0 727:0 728:0 729:0 730:0 731:0 732:0 733:0 734:0 735:0 736:0 737:0 738:0 739:0 740:0 741:0 742:3 743:0 744:1 745:0 746:0 747:2 748:0 749:0 750:0 751:0 752:0 753:0 754:0 755:0 756:1 757:0 758:0 759:0 760:0 761:0 762:0 763:0 764:0 765:0 766:0 767:0 768:0 769:0 770:0 771:0 772:0 773:0 774:0 775:0 776:0 777:0 778:0 779:1 780:0 781:0 782:0 783:0 784:0 785:0 786:0 787:0 788:0 789:0 790:0 791:1 792:0 793:0 794:0 795:0 796:0 797:1 798:0 799:0 800:0 801:0 802:0 803:0 804:0 805:0 806:0 807:0 808:0 809:0 810:0 811:0 812:0 813:0 814:0 815:0 816:0 817:0 818:0 819:0 820:0 821:0 822:0 823:0 824:0 825:0 826:0 827:0 828:0 829:0 830:0 831:0 832:0 833:0 834:0 835:0 836:0 837:0 838:0 839:0 840:0 841:0 842:0 843:0 844:0 845:0 846:0 847:0 848:2 849:0 850:0 851:0 852:0 853:0 854:1 855:0 856:0 857:0 858:0 859:0 860:1 861:0 862:0 863:0 864:0 865:0 866:0 867:0 868:0 869:0 870:0 871:0 872:0 873:0 874:0 875:0 876:0 877:0 878:0 879:0 880:0 881:0 882:0 883:0 884:0 885:0 886:0 887:0 888:0 889:0 890:0 891:0 892:0 893:0 894:0 895:0 896:0 897:0 898:0 899:0 900:0 901:0 902:0 903:0 904:0 905:0 906:0 907:0 908:0 909:0 910:0 911:0 912:0 913:0 914:0 915:0 916:0 917:0 918:0 919:0 920:0 921:0 922:0 923:0 924:0 925:0 926:0 927:1 928:0 929:0 930:1 931:0 932:0 933:1 934:0 935:0 936:1 937:0 938:0 939:0 940:0 941:0 942:0 943:2 944:0 945:0 946:0 947:0 948:0 949:0 950:0 951:0 952:0 953:0 954:0 955:0 956:0 957:0 958:0 959:0 960:0 961:0 962:0 963:0 964:0 965:0 966:0 967:0 968:0 969:0 970:0 971:1 972:0 973:0 974:0 975:0 976:0 977:0 978:0 979:0 980:0 981:0 982:0 983:0 984:0 985:0 986:0 987:0 988:0 989:0 990:0 991:0 992:0 993:1 994:0 995:0 996:0 997:0 998:0 999:0 1000:0 
0.0021869851776748265 1:0 2:0 3:0 4:0 5:0 6:0 7:0 8:0 9:0 10:0 11:0 12:0 13:0 14:0 15:0 16:0 17:0 18:0 19:0 20:0 21:0 22:0 23:0 24:1 25:0 26:0 27:0 28:0 29:0 30:0 31:0 32:0 33:1 34:0 35:0 36:0 37:0 38:0 39:0 40:0 41:0 42:0 43:0 44:0 45:0 46:0 47:0 48:0 49:0 50:0 51:0 52:0 53:0 54:0 55:0 56:0 57:0 58:0 59:0 60:0 61:0 62:0 63:0 64:0 65:0 66:0 67:0 68:1 69:0 70:0 71:0 72:0 73:0 74:0 75:0 76:0 77:0 78:0 79:0 80:0 81:0 82:0 83:0 84:0 85:0 86:1 87:0 88:0 89:0 90:0 91:0 92:0 93:1 94:0 95:0 96:0 97:0 98:0 99:1 100:0 101:0 102:0 103:0 104:0 105:1 106:0 107:0 108:0 109:0 110:0 111:0 112:0 113:1 114:3 115:0 116:0 117:0 118:0 119:0 120:0 121:0 122:0 123:0 124:0 125:0 126:0 127:0 128:0 129:0 130:0 131:0 132:0 133:0 134:0 135:0 136:0 137:0 138:0 139:0 140:0 141:0 142:1 143:0 144:0 145:0 146:0 147:0 148:0 149:0 150:0 151:0 152:0 153:0 154:1 155:0 156:0 157:0 158:0 159:0 160:0 161:0 162:0 163:0 164:1 165:0 166:0 167:0 168:0 169:0 170:0 171:0 172:0 173:0 174:0 175:0 176:0 177:0 178:0 179:0 180:0 181:0 182:0 183:0 184:0 185:0 186:0 187:0 188:0 189:0 190:0 191:0 192:0 193:0 194:0 195:1 196:0 197:0 198:1 199:0 200:0 201:0 202:1 203:0 204:0 205:0 206:0 207:0 208:0 209:0 210:1 211:0 212:0 213:0 214:0 215:0 216:0 217:0 218:0 219:0 220:0 221:0 222:0 223:0 224:0 225:0 226:0 227:0 228:0 229:0 230:0 231:0 232:0 233:0 234:0 235:0 236:0 237:0 238:0 239:0 240:0 241:0 242:0 243:0 244:0 245:0 246:0 247:0 248:0 249:0 250:0 251:0 252:0 253:0 254:0 255:0 256:0 257:1 258:0 259:0 260:0 261:0 262:0 263:0 264:0 265:0 266:0 267:0 268:0 269:0 270:0 271:0 272:0 273:0 274:0 275:0 276:0 277:0 278:0 279:0 280:0 281:0 282:0 283:0 284:1 285:0 286:0 287:0 288:0 289:0 290:0 291:0 292:0 293:0 294:0 295:0 296:0 297:0 298:0 299:0 300:0 301:0 302:0 303:0 304:0 305:0 306:0 307:0 308:0 309:0 310:0 311:0 312:0 313:0 314:0 315:0 316:0 317:0 318:0 319:0 320:0 321:0 322:0 323:0 324:0 325:1 326:0 327:0 328:0 329:0 330:0 331:0 332:0 333:0 334:0 335:0 336:0 337:0 338:0 339:0 340:0 341:0 342:1 343:0 344:0 345:0 346:0 347:0 348:0 349:1 350:0 351:0 352:1 353:0 354:0 355:0 356:0 357:0 358:0 359:4 360:0 361:0 362:0 363:0 364:0 365:0 366:0 367:0 368:0 369:0 370:0 371:0 372:0 373:0 374:0 375:0 376:0 377:0 378:0 379:0 380:0 381:0 382:0 383:0 384:0 385:0 386:0 387:0 388:0 389:0 390:0 391:0 392:0 393:0 394:0 395:0 396:0 397:0 398:0 399:0 400:0 401:0 402:1 403:0 404:0 405:0 406:0 407:0 408:0 409:0 410:0 411:0 412:0 413:0 414:0 415:1 416:0 417:0 418:0 419:0 420:0 421:0 422:0 423:0 424:0 425:0 426:0 427:0 428:0 429:0 430:0 431:2 432:0 433:0 434:0 435:0 436:0 437:0 438:0 439:0 440:0 441:0 442:0 443:0 444:0 445:0 446:3 447:0 448:0 449:0 450:0 451:0 452:0 453:0 454:0 455:0 456:0 457:0 458:0 459:0 460:0 461:0 462:0 463:0 464:0 465:0 466:0 467:0 468:0 469:0 470:1 471:0 472:0 473:0 474:0 475:0 476:0 477:0 478:0 479:2 480:0 481:0 482:0 483:0 484:0 485:0 486:0 487:0 488:0 489:0 490:0 491:0 492:0 493:0 494:0 495:0 496:0 497:0 498:0 499:1 500:0 501:0 502:0 503:0 504:0 505:0 506:0 507:0 508:0 509:0 510:0 511:0 512:1 513:0 514:0 515:0 516:0 517:0 518:0 519:0 520:0 521:0 522:0 523:0 524:0 525:0 526:0 527:0 528:0 529:0 530:2 531:0 532:0 533:0 534:0 535:0 536:0 537:0 538:0 539:0 540:0 541:0 542:0 543:0 544:0 545:0 546:0 547:0 548:0 549:0 550:0 551:0 552:0 553:0 554:0 555:0 556:0 557:0 558:0 559:0 560:0 561:0 562:0 563:0 564:0 565:0 566:0 567:0 568:0 569:0 570:0 571:0 572:0 573:0 574:0 575:3 576:0 577:0 578:0 579:0 580:0 581:0 582:0 583:0 584:0 585:0 586:0 587:0 588:0 589:0 590:0 591:0 592:0 593:0 594:0 595:0 596:2 597:0 598:0 599:0 600:0 601:0 602:0 603:2 604:0 605:0 606:0 607:0 608:0 609:0 610:0 611:0 612:0 613:0 614:0 615:0 616:0 617:0 618:0 619:0 620:0 621:0 622:0 623:0 624:0 625:0 626:0 627:0 628:0 629:0 630:0 631:0 632:0 633:0 634:0 635:0 636:0 637:0 638:0 639:0 640:0 641:0 642:0 643:0 644:0 645:0 646:0 647:0 648:0 649:0 650:0 651:0 652:0 653:0 654:0 655:0 656:1 657:0 658:1 659:0 660:0 661:0 662:0 663:0 664:0 665:0 666:0 667:0 668:0 669:0 670:0 671:0 672:0 673:1 674:1 675:0 676:0 677:0 678:0 679:0 680:0 681:0 682:0 683:1 684:0 685:0 686:0 687:0 688:0 689:0 690:0 691:0 692:0 693:0 694:0 695:0 696:0 697:1 698:0 699:0 700:0 701:1 702:0 703:0 704:0 705:0 706:0 707:0 708:0 709:0 710:0 711:0 712:0 713:0 714:0 715:0 716:0 717:0 718:0 719:0 720:0 721:0 722:1 723:0 724:0 725:0 726:0 727:1 728:0 729:0 730:0 731:0 732:0 733:0 734:0 735:0 736:0 737:0 738:0 739:0 740:0 741:0 742:0 743:0 744:0 745:8 746:0 747:2 748:0 749:1 750:0 751:0 752:0 753:0 754:0 755:0 756:0 757:0 758:1 759:0 760:0 761:0 762:1 763:0 764:0 765:0 766:0 767:0 768:0 769:0 770:0 771:0 772:0 773:0 774:1 775:0 776:0 777:0 778:0 779:0 780:0 781:1 782:0 783:0 784:0 785:0 786:0 787:0 788:0 789:0 790:0 791:2 792:0 793:0 794:0 795:0 796:0 797:0 798:0 799:0 800:0 801:0 802:0 803:0 804:0 805:0 806:0 807:1 808:0 809:0 810:0 811:0 812:0 813:0 814:2 815:0 816:0 817:0 818:0 819:0 820:0 821:0 822:0 823:0 824:0 825:0 826:0 827:0 828:0 829:0 830:0 831:0 832:0 833:0 834:0 835:0 836:0 837:0 838:0 839:0 840:0 841:0 842:0 843:0 844:0 845:0 846:0 847:0 848:0 849:0 850:0 851:0 852:0 853:0 854:0 855:0 856:0 857:0 858:0 859:3 860:0 861:0 862:0 863:0 864:0 865:0 866:0 867:0 868:0 869:0 870:0 871:0 872:0 873:0 874:0 875:0 876:0 877:0 878:0 879:0 880:0 881:0 882:0 883:0 884:0 885:0 886:0 887:0 888:0 889:0 890:0 891:0 892:0 893:0 894:0 895:0 896:0 897:0 898:0 899:0 900:0 901:0 902:0 903:0 904:0 905:0 906:0 907:0 908:0 909:0 910:0 911:0 912:0 913:0 914:0 915:0 916:0 917:0 918:0 919:0 920:0 921:0 922:0 923:0 924:0 925:0 926:1 927:0 928:0 929:0 930:0 931:0 932:0 933:0 934:0 935:0 936:0 937:0 938:0 939:0 940:0 941:1 942:0 943:0 944:0 945:0 946:0 947:0 948:0 949:0 950:0 951:0 952:0 953:0 954:0 955:0 956:0 957:0 958:0 959:0 960:0 961:0 962:0 963:0 964:0 965:0 966:0 967:0 968:0 969:0 970:0 971:0 972:0 973:0 974:0 975:0 976:0 977:0 978:0 979:0 980:0 981:1 982:0 983:0 984:0 985:0 986:0 987:0 988:0 989:0 990:0 991:0 992:0 993:0 994:0 995:0 996:0 997:0 998:1 999:0 1000:0 
0.018803942601284422 1:0 2:0 3:0 4:0 5:0 6:0 7:0 8:0 9:0 10:0 11:0 12:0 13:0 14:0 15:0 16:0 17:0 18:0 19:0 20:0 21:0 22:0 23:0 24:0 25:0 26:0 27:0 28:0 29:0 30:0 31:0 32:0 33:0 34:0 35:0 36:0 37:0 38:0 39:0 40:0 41:0 42:0 43:0 44:0 45:0 46:0 47:0 48:0 49:0 50:0 51:0 52:0 53:0 54:0 55:0 56:0 57:0 58:0 59:0 60:0 61:0 62:0 63:0 64:0 65:0 66:0 67:0 68:0 69:0 70:0 71:0 72:0 73:0 74:0 75:0 76:0 77:0 78:0 79:0 80:0 81:0 82:0 83:0 84:0 85:0 86:0 87:0 88:0 89:1 90:0 91:0 92:0 93:0 94:0 95:0 96:0 97:0 98:0 99:0 100:0 101:0 102:0 103:0 104:0 105:0 106:0 107:0 108:0 109:0 110:0 111:0 112:0 113:0 114:0 115:2 116:0 117:0 118:0 119:0 120:0 121:0 122:0 123:0 124:0 125:0 126:0 127:0 128:0 129:0 130:0 131:0 132:0 133:0 134:0 135:0 136:0 137:0 138:0 139:0 140:0 141:0 142:0 143:0 144:0 145:0 146:0 147:0 148:0 149:0 150:0 151:0 152:0 153:0 154:0 155:0 156:0 157:0 158:0 159:0 160:1 161:0 162:0 163:0 164:0 165:0 166:0 167:0 168:0 169:0 170:0 171:0 172:0 173:0 174:0 175:0 176:0 177:0 178:0 179:0 180:0 181:0 182:0 183:0 184:0 185:0 186:0 187:0 188:0 189:0 190:0 191:0 192:0 193:0 194:0 195:0 196:0 197:0 198:0 199:0 200:0 201:0 202:0 203:0 204:0 205:0 206:0 207:0 208:0 209:0 210:0 211:0 212:0 213:0 214:0 215:0 216:0 217:0 218:0 219:0 220:0 221:0 222:0 223:0 224:0 225:0 226:0 227:0 228:0 229:0 230:0 231:0 232:0 233:0 234:0 235:0 236:0 237:2 238:0 239:0 240:0 241:0 242:0 243:0 244:0 245:0 246:0 247:0 248:0 249:0 250:0 251:0 252:0 253:0 254:0 255:0 256:0 257:0 258:0 259:0 260:0 261:0 262:0 263:0 264:0 265:0 266:0 267:0 268:0 269:0 270:0 271:0 272:0 273:0 274:0 275:0 276:0 277:0 278:0 279:0 280:0 281:0 282:0 283:0 284:0 285:0 286:0 287:0 288:0 289:0 290:0 291:0 292:0 293:0 294:0 295:0 296:0 297:0 298:1 299:0 300:0 301:0 302:0 303:0 304:0 305:0 306:0 307:0 308:0 309:0 310:0 311:0 312:0 313:0 314:0 315:0 316:0 317:0 318:0 319:0 320:0 321:0 322:0 323:0 324:0 325:1 326:0 327:0 328:0 329:0 330:0 331:0 332:0 333:0 334:0 335:0 336:0 337:0 338:0 339:0 340:0 341:0 342:0 343:0 344:0 345:0 346:0 347:0 348:0 349:0 350:0 351:0 352:0 353:0 354:0 355:0 356:0 357:0 358:0 359:2 360:0 361:0 362:0 363:0 364:0 365:0 366:0 367:1 368:0 369:0 370:0 371:0 372:0 373:0 374:0 375:0 376:0 377:0 378:0 379:0 380:0 381:0 382:0 383:0 384:0 385:0 386:1 387:0 388:0 389:0 390:0 391:0 392:0 393:0 394:0 395:0 396:0 397:0 398:0 399:0 400:1 401:0 402:0 403:0 404:0 405:0 406:0 407:0 408:0 409:0 410:0 411:0 412:0 413:0 414:0 415:0 416:0 417:0 418:0 419:0 420:0 421:0 422:0 423:0 424:0 425:1 426:0 427:0 428:0 429:0 430:0 431:0 432:0 433:0 434:0 435:0 436:0 437:1 438:0 439:0 440:0 441:0 442:0 443:0 444:0 445:0 446:0 447:0 448:0 449:0 450:0 451:0 452:0 453:0 454:0 455:0 456:0 457:0 458:0 459:0 460:0 461:0 462:0 463:0 464:0 465:0 466:0 467:0 468:0 469:0 470:0 471:0 472:0 473:0 474:0 475:0 476:0 477:0 478:0 479:0 480:0 481:0 482:0 483:0 484:0 485:0 486:0 487:0 488:0 489:0 490:0 491:0 492:0 493:0 494:0 495:0 496:0 497:0 498:0 499:0 500:0 501:0 502:0 503:0 504:0 505:0 506:0 507:0 508:0 509:0 510:0 511:0 512:1 513:0 514:0 515:0 516:0 517:0 518:0 519:0 520:0 521:0 522:0 523:0 524:0 525:0 526:0 527:0 528:0 529:0 530:0 531:0 532:0 533:0 534:0 535:0 536:0 537:0 538:0 539:0 540:0 541:0 542:0 543:0 544:0 545:0 546:0 547:0 548:0 549:0 550:0 551:0 552:0 553:0 554:0 555:0 556:0 557:0 558:0 559:0 560:0 561:0 562:0 563:0 564:0 565:0 566:0 567:0 568:0 569:0 570:0 571:0 572:0 573:0 574:0 575:0 576:0 577:0 578:0 579:0 580:0 581:0 582:0 583:0 584:0 585:0 586:0 587:0 588:0 589:0 590:0 591:0 592:0 593:0 594:0 595:0 596:1 597:0 598:0 599:0 600:0 601:0 602:0 603:0 604:0 605:0 606:0 607:0 608:0 609:0 610:0 611:0 612:0 613:0 614:0 615:0 616:0 617:0 618:0 619:0 620:0 621:0 622:0 623:0 624:0 625:0 626:0 627:0 628:0 629:0 630:0 631:0 632:0 633:0 634:0 635:0 636:0 637:0 638:0 639:0 640:0 641:0 642:0 643:0 644:0 645:0 646:0 647:0 648:0 649:0 650:0 651:0 652:0 653:0 654:3 655:0 656:2 657:0 658:0 659:0 660:0 661:0 662:0 663:0 664:0 665:0 666:0 667:0 668:0 669:0 670:0 671:0 672:0 673:0 674:0 675:0 676:0 677:0 678:0 679:0 680:0 681:0 682:0 683:0 684:0 685:0 686:0 687:0 688:0 689:0 690:0 691:0 692:0 693:0 694:0 695:0 696:0 697:0 698:0 699:0 700:0 701:0 702:0 703:0 704:0 705:0 706:0 707:0 708:0 709:0 710:0 711:0 712:0 713:0 714:0 715:0 716:0 717:0 718:0 719:0 720:0 721:0 722:1 723:0 724:0 725:0 726:0 727:0 728:0 729:1 730:0 731:0 732:0 733:0 734:0 735:0 736:0 737:0 738:0 739:0 740:0 741:0 742:0 743:0 744:0 745:0 746:0 747:0 748:0 749:0 750:0 751:0 752:0 753:0 754:0 755:0 756:0 757:0 758:0 759:0 760:0 761:0 762:0 763:0 764:0 765:0 766:0 767:0 768:0 769:1 770:0 771:0 772:0 773:0 774:0 775:0 776:0 777:0 778:0 779:0 780:0 781:0 782:0 783:0 784:0 785:0 786:0 787:0 788:0 789:0 790:0 791:0 792:0 793:0 794:0 795:0 796:0 797:0 798:0 799:0 800:0 801:0 802:0 803:0 804:0 805:0 806:0 807:0 808:0 809:0 810:0 811:0 812:0 813:0 814:0 815:0 816:0 817:0 818:0 819:0 820:0 821:0 822:0 823:0 824:0 825:0 826:0 827:0 828:0 829:0 830:0 831:0 832:0 833:0 834:0 835:0 836:0 837:0 838:0 839:0 840:0 841:0 842:0 843:0 844:0 845:0 846:0 847:0 848:0 849:0 850:0 851:0 852:0 853:0 854:0 855:0 856:0 857:0 858:0 859:0 860:0 861:0 862:0 863:0 864:0 865:0 866:0 867:0 868:0 869:0 870:0 871:0 872:0 873:0 874:0 875:0 876:0 877:0 878:0 879:0 880:0 881:0 882:0 883:0 884:0 885:0 886:0 887:0 888:0 889:0 890:0 891:0 892:0 893:0 894:0 895:1 896:0 897:0 898:0 899:0 900:0 901:0 902:0 903:0 904:0 905:0 906:0 907:0 908:0 909:0 910:0 911:1 912:0 913:0 914:0 915:0 916:0 917:0 918:0 919:0 920:0 921:0 922:0 923:0 924:0 925:0 926:0 927:0 928:0 929:0 930:0 931:0 932:0 933:0 934:0 935:0 936:0 937:0 938:0 939:0 940:0 941:0 942:0 943:0 944:0 945:0 946:0 947:0 948:0 949:0 950:0 951:0 952:0 953:0 954:0 955:0 956:0 957:0 958:0 959:0 960:0 961:0 962:0 963:0 964:0 965:0 966:0 967:0 968:0 969:2 970:0 971:0 972:0 973:0 974:0 975:0 976:0 977:0 978:0 979:0 980:0 981:0 982:0 983:0 984:0 985:0 986:1 987:0 988:0 989:0 990:0 991:0 992:0 993:0 994:0 995:0 996:0 997:0 998:0 999:0 1000:0 
0.045995047020551821 1:0 2:0 3:0 4:0 5:0 6:0 7:0 8:0 9:0 10:0 11:0 12:0 13:0 14:0 15:0 16:0 17:0 18:0 19:0 20:0 21:0 22:0 23:0 24:0 25:0 26:0 27:0 28:0 29:0 30:0 31:0 32:0 33:0 34:0 35:0 36:0 37:0 38:0 39:0 40:0 41:0 42:0 43:0 44:0 45:0 46:0 47:0 48:0 49:0 50:0 51:0 52:0 53:0 54:0 55:0 56:0 57:0 58:0 59:0 60:0 61:0 62:0 63:0 64:0 65:0 66:0 67:0 68:0 69:0 70:0 71:0 72:0 73:0 74:0 75:0 76:0 77:0 78:0 79:0 80:0 81:0 82:0 83:0 84:0 85:0 86:0 87:0 88:0 89:0 90:0 91:0 92:0 93:0 94:0 95:0 96:0 97:0 98:0 99:0 100:0 101:0 102:0 103:0 104:0 105:0 106:0 107:0 108:0 109:0 110:0 111:1 112:0 113:0 114:0 115:0 116:0 117:0 118:0 119:0 120:0 121:0 122:0 123:0 124:0 125:0 126:0 127:0 128:0 129:0 130:0 131:0 132:0 133:0 134:0 135:0 136:0 137:0 138:0 139:0 140:0 141:0 142:0 143:0 144:0 145:0 146:0 147:0 148:0 149:0 150:0 151:0 152:0 153:0 154:0 155:0 156:0 157:0 158:0 159:0 160:0 161:0 162:0 163:0 164:0 165:0 166:1 167:0 168:0 169:0 170:0 171:0 172:0 173:0 174:0 175:0 176:0 177:0 178:0 179:0 180:0 181:0 182:0 183:0 184:0 185:0 186:0 187:0 188:0 189:0 190:0 191:0 192:0 193:0 194:0 195:0 196:0 197:0 198:0 199:0 200:0 201:0 202:0 203:0 204:0 205:0 206:0 207:0 208:0 209:0 210:0 211:0 212:0 213:0 214:0 215:0 216:0 217:0 218:0 219:0 220:0 221:0 222:0 223:0 224:0 225:0 226:0 227:0 228:0 229:0 230:0 231:0 232:0 233:0 234:0 235:0 236:0 237:0 238:0 239:0 240:0 241:0 242:0 243:0 244:0 245:0 246:0 247:0 248:0 249:0 250:0 251:0 252:0 253:0 254:0 255:0 256:0 257:0 258:0 259:0 260:0 261:0 262:0 263:1 264:0 265:0 266:0 267:0 268:0 269:0 270:0 271:0 272:0 273:0 274:0 275:0 276:0 277:0 278:0 279:0 280:0 281:0 282:0 283:0 284:0 285:0 286:0 287:0 288:0 289:0 290:0 291:0 292:0 293:0 294:0 295:0 296:0 297:0 298:0 299:0 300:0 301:0 302:0 303:0 304:0 305:0 306:0 307:0 308:0 309:0 310:0 311:0 312:0 313:0 314:0 315:0 316:0 317:0 318:0 319:0 320:0 321:0 322:0 323:0 324:0 325:0 326:0 327:0 328:0 329:0 330:0 331:0 332:0 333:0 334:0 335:0 336:0 337:0 338:0 339:0 340:0 341:0 342:0 343:0 344:0 345:0 346:0 347:0 348:0 349:0 350:0 351:0 352:0 353:0 354:0 355:0 356:0 357:0 358:0 359:1 360:0 361:0 362:0 363:0 364:0 365:0 366:0 367:0 368:0 369:0 370:0 371:0 372:0 373:0 374:0 375:0 376:0 377:0 378:0 379:0 380:0 381:0 382:0 383:0 384:0 385:0 386:0 387:0 388:0 389:0 390:0 391:0 392:0 393:0 394:0 395:0 396:0 397:0 398:0 399:0 400:0 401:0 402:0 403:0 404:0 405:0 406:0 407:0 408:0 409:0 410:0 411:0 412:0 413:0 414:0 415:0 416:0 417:0 418:0 419:1 420:0 421:1 422:0 423:0 424:0 425:0 426:0 427:0 428:0 429:0 430:0 431:0 432:0 433:0 434:0 435:0 436:0 437:0 438:0 439:0 440:0 441:0 442:0 443:0 444:0 445:0 446:0 447:0 448:0 449:0 450:0 451:0 452:0 453:0 454:0 455:0 456:0 457:0 458:0 459:0 460:0 461:0 462:0 463:0 464:0 465:0 466:0 467:0 468:0 469:0 470:0 471:0 472:0 473:0 474:0 475:0 476:0 477:0 478:0 479:0 480:0 481:0 482:0 483:0 484:0 485:0 486:0 487:0 488:0 489:0 490:0 491:0 492:0 493:0 494:0 495:0 496:0 497:0 498:0 499:0 500:0 501:0 502:0 503:0 504:0 505:0 506:0 507:0 508:0 509:0 510:0 511:0 512:0 513:0 514:0 515:0 516:0 517:0 518:0 519:0 520:0 521:0 522:0 523:0 524:0 525:0 526:0 527:0 528:0 529:0 530:0 531:0 532:0 533:0 534:0 535:0 536:0 537:0 538:0 539:0 540:0 541:0 542:0 543:0 544:0 545:1 546:0 547:0 548:0 549:0 550:0 551:0 552:0 553:0 554:0 555:0 556:0 557:0 558:0 559:0 560:1 561:0 562:0 563:0 564:0 565:0 566:0 567:0 568:0 569:0 570:0 571:0 572:0 573:0 574:0 575:0 576:0 577:0 578:0 579:0 580:0 581:0 582:0 583:0 584:0 585:0 586:0 587:0 588:0 589:0 590:0 591:0 592:0 593:0 594:0 595:0 596:0 597:0 598:0 599:0 600:0 601:1 602:0 603:0 604:0 605:0 606:0 607:0 608:0 609:0 610:0 611:0 612:0 613:0 614:0 615:0 616:0 617:0 618:0 619:0 620:0 621:0 622:0 623:0 624:0 625:0 626:0 627:0 628:0 629:0 630:0 631:0 632:0 633:0 634:0 635:0 636:0 637:0 638:0 639:0 640:0 641:0 642:0 643:0 644:0 645:0 646:0 647:0 648:0 649:0 650:0 651:0 652:0 653:0 654:0 655:0 656:0 657:0 658:0 659:0 660:0 661:0 662:0 663:0 664:0 665:0 666:0 667:0 668:0 669:0 670:0 671:0 672:0 673:0 674:0 675:0 676:0 677:0 678:0 679:0 680:0 681:0 682:0 683:0 684:0 685:0 686:0 687:0 688:0 689:0 690:0 691:0 692:0 693:0 694:0 695:0 696:0 697:0 698:0 699:0 700:0 701:0 702:0 703:0 704:0 705:0 706:0 707:0 708:0 709:0 710:0 711:0 712:0 713:0 714:0 715:0 716:0 717:0 718:0 719:0 720:0 721:0 722:0 723:0 724:0 725:0 726:0 727:0 728:0 729:0 730:0 731:0 732:0 733:0 734:0 735:0 736:0 737:0 738:0 739:0 740:0 741:0 742:0 743:0 744:0 745:0 746:0 747:0 748:0 749:0 750:0 751:0 752:0 753:0 754:0 755:0 756:0 757:0 758:0 759:0 760:0 761:0 762:0 763:0 764:0 765:0 766:0 767:0 768:0 769:0 770:0 771:0 772:0 773:0 774:0 775:0 776:0 777:0 778:0 779:0 780:0 781:0 782:0 783:0 784:0 785:0 786:0 787:0 788:0 789:0 790:0 791:0 792:0 793:0 794:0 795:0 796:0 797:0 798:0 799:0 800:0 801:0 802:0 803:0 804:0 805:0 806:0 807:0 808:0 809:0 810:0 811:0 812:0 813:0 814:0 815:0 816:0 817:0 818:0 819:0 820:0 821:0 822:0 823:0 824:0 825:0 826:1 827:0 828:0 829:0 830:0 831:0 832:0 833:0 834:0 835:0 836:0 837:0 838:0 839:0 840:0 841:0 842:0 843:0 844:0 845:0 846:0 847:0 848:0 849:0 850:0 851:0 852:0 853:0 854:0 855:0 856:0 857:0 858:0 859:0 860:0 861:0 862:0 863:0 864:0 865:0 866:0 867:0 868:0 869:0 870:0 871:0 872:0 873:0 874:0 875:0 876:0 877:0 878:0 879:0 880:0 881:0 882:0 883:0 884:0 885:0 886:0 887:0 888:0 889:0 890:0 891:0 892:0 893:0 894:0 895:0 896:0 897:0 898:0 899:0 900:0 901:0 902:0 903:0 904:0 905:0 906:0 907:0 908:0 909:0 910:0 911:0 912:0 913:0 914:0 915:0 916:0 917:0 918:0 919:0 920:0 921:0 922:0 923:0 924:0 925:0 926:0 927:0 928:0 929:0 930:0 931:0 932:0 933:0 934:0 935:0 936:0 937:0 938:0 939:0 940:0 941:0 942:0 943:0 944:0 945:0 946:0 947:0 948:0 949:0 950:0 951:0 952:0 953:0 954:0 955:0 956:0 957:0 958:0 959:0 960:0 961:0 962:0 963:0 964:0 965:0 966:0 967:0 968:0 969:0 970:0 971:0 972:0 973:0 974:0 975:0 976:0 977:0 978:0 979:0 980:0 981:0 982:0 983:0 984:0 985:0 986:0 987:0 988:0 989:0 990:0 991:0 992:0 993:0 994:0 995:0 996:0 997:0 998:0 999:0 1000:0 
0.031607043057083478 1:0 2:0 3:0 4:0 5:0 6:0 7:0 8:0 9:0 10:0 11:0 12:0 13:0 14:0 15:0 16:0 17:0 18:0 19:0 20:0 21:0 22:0 23:0 24:0 25:0 26:0 27:0 28:0 29:0 30:0 31:0 32:0 33:0 34:1 35:0 36:0 37:0 38:0 39:0 40:0 41:0 42:0 43:0 44:0 45:0 46:0 47:0 48:0 49:0 50:0 51:0 52:0 53:0 54:0 55:0 56:0 57:1 58:0 59:0 60:0 61:0 62:0 63:0 64:0 65:1 66:0 67:0 68:0 69:0 70:0 71:0 72:0 73:0 74:0 75:0 76:0 77:0 78:0 79:0 80:0 81:0 82:0 83:0 84:0 85:0 86:0 87:0 88:0 89:0 90:0 91:0 92:0 93:0 94:0 95:0 96:0 97:0 98:0 99:0 100:0 101:0 102:1 103:0 104:0 105:0 106:0 107:0 108:0 109:0 110:0 111:0 112:0 113:0 114:0 115:0 116:0 117:0 118:0 119:0 120:0 121:0 122:0 123:0 124:0 125:0 126:0 127:0 128:0 129:0 130:0 131:1 132:0 133:0 134:0 135:0 136:0 137:0 138:0 139:0 140:0 141:0 142:0 143:0 144:0 145:0 146:0 147:0 148:0 149:0 150:0 151:0 152:0 153:0 154:0 155:2 156:0 157:0 158:0 159:0 160:0 161:0 162:0 163:0 164:0 165:0 166:0 167:0 168:0 169:0 170:0 171:0 172:0 173:0 174:0 175:0 176:0 177:0 178:0 179:0 180:0 181:0 182:0 183:0 184:0 185:0 186:1 187:0 188:0 189:0 190:0 191:0 192:0 193:0 194:0 195:0 196:0 197:0 198:0 199:0 200:0 201:0 202:0 203:0 204:0 205:0 206:0 207:0 208:0 209:0 210:0 211:0 212:0 213:0 214:0 215:0 216:0 217:0 218:0 219:0 220:0 221:0 222:0 223:0 224:0 225:0 226:0 227:1 228:0 229:0 230:0 231:0 232:0 233:0 234:0 235:0 236:0 237:0 238:0 239:0 240:0 241:0 242:0 243:0 244:0 245:0 246:0 247:0 248:0 249:0 250:0 251:0 252:0 253:0 254:0 255:0 256:0 257:0 258:0 259:0 260:0 261:0 262:0 263:0 264:0 265:0 266:0 267:0 268:0 269:0 270:0 271:0 272:0 273:0 274:0 275:0 276:0 277:0 278:0 279:0 280:0 281:0 282:0 283:0 284:0 285:0 286:0 287:0 288:0 289:0 290:0 291:0 292:0 293:0 294:0 295:0 296:0 297:0 298:0 299:0 300:0 301:0 302:0 303:0 304:0 305:0 306:0 307:0 308:0 309:0 310:0 311:0 312:0 313:0 314:0 315:0 316:0 317:0 318:0 319:0 320:0 321:0 322:0 323:0 324:0 325:0 326:0 327:0 328:0 329:0 330:0 331:0 332:0 333:0 334:0 335:0 336:0 337:0 338:0 339:0 340:0 341:0 342:0 343:0 344:0 345:0 346:0 347:0 348:0 349:0 350:0 351:0 352:0 353:0 354:0 355:0 356:0 357:0 358:0 359:0 360:0 361:0 362:0 363:0 364:0 365:0 366:0 367:0 368:0 369:0 370:0 371:0 372:1 373:0 374:0 375:0 376:0 377:0 378:0 379:0 380:0 381:0 382:0 383:0 384:0 385:0 386:0 387:0 388:0 389:1 390:0 391:0 392:0 393:0 394:0 395:0 396:0 397:0 398:0 399:0 400:0 401:0 402:2 403:0 404:0 405:0 406:0 407:0 408:0 409:1 410:0 411:0 412:0 413:0 414:0 415:0 416:0 417:0 418:0 419:0 420:0 421:0 422:0 423:0 424:0 425:0 426:0 427:0 428:0 429:0 430:0 431:0 432:0 433:0 434:0 435:0 436:0 437:0 438:0 439:0 440:0 441:1 442:0 443:0 444:0 445:0 446:2 447:0 448:0 449:0 450:0 451:0 452:0 453:0 454:0 455:0 456:0 457:0 458:0 459:0 460:0 461:1 462:0 463:0 464:0 465:0 466:0 467:0 468:0 469:0 470:0 471:0 472:0 473:0 474:0 475:0 476:0 477:0 478:0 479:0 480:0 481:0 482:0 483:0 484:0 485:0 486:1 487:0 488:0 489:0 490:0 491:0 492:0 493:0 494:0 495:0 496:0 497:0 498:0 499:0 500:0 501:0 502:0 503:0 504:0 505:0 506:0 507:0 508:0 509:0 510:0 511:0 512:0 513:0 514:0 515:0 516:0 517:0 518:0 519:0 520:0 521:0 522:0 523:0 524:0 525:1 526:0 527:0 528:0 529:0 530:0 531:0 532:0 533:0 534:0 535:0 536:0 537:0 538:0 539:0 540:0 541:0 542:0 543:0 544:0 545:0 546:0 547:0 548:0 549:0 550:1 551:0 552:0 553:0 554:0 555:0 556:0 557:0 558:0 559:0 560:0 561:0 562:0 563:0 564:0 565:0 566:0 567:0 568:0 569:0 570:0 571:0 572:1 573:0 574:0 575:0 576:0 577:0 578:0 579:0 580:0 581:0 582:0 583:0 584:0 585:0 586:0 587:0 588:0 589:0 590:0 591:0 592:0 593:0 594:0 595:0 596:0 597:0 598:0 599:0 600:0 601:0 602:0 603:2 604:0 605:0 606:0 607:0 608:0 609:0 610:0 611:0 612:0 613:0 614:0 615:0 616:0 617:0 618:0 619:0 620:0 621:0 622:0 623:0 624:0 625:0 626:0 627:0 628:0 629:0 630:0 631:0 632:0 633:0 634:0 635:0 636:0 637:0 638:0 639:0 640:0 641:0 642:0 643:0 644:0 645:0 646:0 647:0 648:0 649:0 650:0 651:0 652:0 653:0 654:0 655:0 656:0 657:0 658:0 659:0 660:0 661:0 662:0 663:0 664:0 665:0 666:0 667:0 668:0 669:0 670:0 671:0 672:0 673:0 674:0 675:0 676:0 677:0 678:0 679:0 680:0 681:0 682:0 683:1 684:0 685:0 686:0 687:0 688:0 689:0 690:0 691:0 692:0 693:0 694:0 695:0 696:0 697:0 698:0 699:0 700:0 701:0 702:0 703:0 704:0 705:0 706:0 707:0 708:0 709:0 710:0 711:0 712:0 713:0 714:0 715:0 716:0 717:1 718:0 719:0 720:0 721:0 722:0 723:0 724:0 725:0 726:0 727:0 728:0 729:0 730:0 731:0 732:0 733:0 734:0 735:0 736:0 737:0 738:0 739:0 740:0 741:0 742:0 743:0 744:0 745:0 746:0 747:0 748:0 749:0 750:0 751:0 752:0 753:0 754:0 755:0 756:0 757:0 758:0 759:0 760:0 761:0 762:0 763:0 764:0 765:0 766:0 767:0 768:0 769:0 770:0 771:0 772:0 773:0 774:0 775:0 776:0 777:1 778:0 779:0 780:0 781:0 782:0 783:0 784:0 785:0 786:0 787:0 788:0 789:0 790:0 791:0 792:0 793:0 794:0 795:0 796:0 797:0 798:0 799:0 800:0 801:0 802:0 803:0 804:0 805:0 806:0 807:0 808:0 809:0 810:0 811:0 812:0 813:0 814:0 815:1 816:0 817:0 818:0 819:0 820:0 821:0 822:0 823:0 824:0 825:0 826:0 827:0 828:0 829:0 830:0 831:0 832:0 833:0 834:0 835:0 836:0 837:0 838:0 839:0 840:0 841:0 842:0 843:0 844:0 845:0 846:0 847:0 848:0 849:0 850:0 851:0 852:0 853:0 854:0 855:0 856:0 857:0 858:0 859:0 860:0 861:0 862:0 863:0 864:0 865:0 866:0 867:0 868:0 869:0 870:0 871:0 872:0 873:0 874:0 875:0 876:0 877:0 878:0 879:0 880:0 881:0 882:0 883:0 884:0 885:0 886:1 887:0 888:0 889:0 890:0 891:0 892:0 893:0 894:0 895:1 896:0 897:0 898:0 899:0 900:0 901:0 902:0 903:0 904:0 905:0 906:0 907:0 908:0 909:0 910:0 911:0 912:0 913:0 914:0 915:0 916:0 917:0 918:0 919:0 920:0 921:0 922:0 923:0 924:0 925:0 926:0 927:0 928:0 929:0 930:0 931:0 932:0 933:0 934:0 935:0 936:0 937:0 938:1 939:0 940:0 941:0 942:0 943:0 944:0 945:0 946:0 947:0 948:0 949:0 950:0 951:0 952:0 953:0 954:0 955:0 956:0 957:0 958:0 959:0 960:0 961:0 962:0 963:0 964:0 965:2 966:0 967:0 968:0 969:0 970:0 971:0 972:0 973:0 974:0 975:0 976:0 977:0 978:0 979:0 980:0 981:0 982:0 983:0 984:0 985:0 986:0 987:0 988:0 989:0 990:0 991:0 992:0 993:0 994:0 995:0 996:0 997:0 998:0 999:0 1000:0 
0.062745448705218157 1:0 2:1 3:0 4:0 5:0 6:0 7:0 8:0 9:0 10:0 11:0 12:0 13:0 14:0 15:0 16:0 17:0 18:0 19:0 20:0 21:0 22:0 23:0 24:0 25:0 26:0 27:0 28:0 29:0 30:0 31:0 32:0 33:0 34:0 35:0 36:0 37:0 38:0 39:0 40:0 41:0 42:0 43:0 44:0 45:0 46:0 47:0 48:0 49:0 50:0 51:0 52:0 53:0 54:0 55:0 56:0 57:0 58:0 59:0 60:0 61:0 62:0 63:0 64:0 65:0 66:0 67:0 68:0 69:0 70:0 71:0 72:0 73:0 74:0 75:0 76:0 77:0 78:0 79:0 80:0 81:0 82:0 83:0 84:0 85:0 86:0 87:0 88:0 89:0 90:0 91:0 92:0 93:0 94:0 95:0 96:0 97:0 98:0 99:0 100:0 101:0 102:0 103:0 104:0 105:0 106:0 107:0 108:0 109:0 110:0 111:0 112:0 113:0 114:0 115:1 116:0 117:0 118:0 119:0 120:0 121:0 122:0 123:0 124:0 125:0 126:0 127:0 128:0 129:0 130:0 131:0 132:0 133:0 134:0 135:0 136:0 137:0 138:0 139:1 140:0 141:0 142:0 143:0 144:0 145:0 146:0 147:0 148:0 149:0 150:0 151:0 152:0 153:0 154:0 155:0 156:0 157:0 158:0 159:0 160:0 161:0 162:0 163:0 164:0 165:0 166:0 167:0 168:0 169:0 170:0 171:0 172:0 173:0 174:0 175:0 176:0 177:0 178:0 179:0 180:0 181:0 182:0 183:0 184:0 185:0 186:0 187:0 188:0 189:0 190:0 191:0 192:0 193:0 194:0 195:0 196:0 197:0 198:0 199:0 200:0 201:0 202:0 203:0 204:0 205:0 206:0 207:0 208:0 209:0 210:0 211:0 212:0 213:0 214:0 215:0 216:0 217:0 218:0 219:0 220:0 221:0 222:0 223:0 224:0 225:0 226:0 227:0 228:0 229:0 230:0 231:0 232:0 233:0 234:0 235:0 236:0 237:0 238:0 239:0 240:0 241:0 242:0 243:0 244:0 245:0 246:0 247:0 248:0 249:0 250:0 251:0 252:0 253:0 254:0 255:0 256:0 257:0 258:0 259:0 260:0 261:0 262:0 263:0 264:0 265:0 266:0 267:0 268:0 269:0 270:0 271:0 272:0 273:0 274:0 275:0 276:0 277:0 278:0 279:0 280:0 281:0 282:0 283:0 284:0 285:0 286:0 287:0 288:0 289:0 290:0 291:0 292:0 293:0 294:0 295:0 296:0 297:0 298:0 299:0 300:0 301:0 302:0 303:0 304:0 305:0 306:0 307:0 308:0 309:0 310:0 311:0 312:0 313:0 314:0 315:0 316:0 317:0 318:0 319:0 320:0 321:0 322:0 323:0 324:0 325:0 326:0 327:0 328:0 329:0 330:0 331:0 332:0 333:0 334:1 335:0 336:0 337:0 338:0 339:0 340:0 341:0 342:0 343:0 344:0 345:0 346:0 347:0 348:0 349:0 350:0 351:0 352:0 353:0 354:0 355:0 356:0 357:0 358:0 359:0 360:0 361:0 362:0 363:0 364:0 365:0 366:0 367:0 368:0 369:0 370:0 371:0 372:0 373:0 374:0 375:0 376:0 377:0 378:0 379:0 380:0 381:0 382:0 383:0 384:0 385:0 386:0 387:0 388:0 389:0 390:0 391:0 392:0 393:0 394:0 395:0 396:0 397:0 398:0 399:0 400:0 401:0 402:0 403:0 404:0 405:0 406:0 407:0 408:0 409:0 410:0 411:1 412:0 413:0 414:0 415:0 416:0 417:0 418:0 419:0 420:0 421:0 422:0 423:0 424:0 425:0 426:0 427:0 428:0 429:0 430:0 431:0 432:0 433:0 434:0 435:0 436:0 437:0 438:0 439:0 440:0 441:0 442:0 443:0 444:0 445:0 446:0 447:0 448:0 449:0 450:0 451:0 452:0 453:0 454:0 455:0 456:0 457:0 458:0 459:0 460:0 461:0 462:0 463:0 464:0 465:0 466:0 467:0 468:1 469:0 470:0 471:0 472:0 473:0 474:0 475:0 476:0 477:0 478:0 479:0 480:0 481:0 482:0 483:0 484:0 485:0 486:0 487:0 488:0 489:0 490:0 491:0 492:0 493:0 494:0 495:0 496:0 497:0 498:2 499:0 500:0 501:0 502:0 503:0 504:0 505:0 506:0 507:0 508:0 509:0 510:0 511:0 512:0 513:0 514:0 515:0 516:0 517:0 518:0 519:0 520:0 521:0 522:0 523:0 524:0 525:0 526:0 527:0 528:0 529:0 530:0 531:0 532:0 533:0 534:0 535:0 536:0 537:0 538:0 539:0 540:0 541:0 542:0 543:0 544:0 545:0 546:0 547:0 548:1 549:0 550:0 551:1 552:0 553:0 554:0 555:0 556:0 557:0 558:0 559:1 560:0 561:0 562:0 563:0 564:0 565:0 566:0 567:0 568:0 569:0 570:0 571:0 572:0 573:0 574:1 575:0 576:0 577:0 578:0 579:0 580:0 581:0 582:0 583:0 584:0 585:0 586:0 587:0 588:0 589:0 590:0 591:0 592:0 593:0 594:0 595:0 596:0 597:0 598:0 599:0 600:0 601:1 602:0 603:0 604:0 605:0 606:0 607:0 608:0 609:0 610:0 611:0 612:0 613:0 614:0 615:0 616:0 617:0 618:0 619:0 620:0 621:0 622:0 623:0 624:0 625:0 626:0 627:0 628:0 629:0 630:0 631:0 632:0 633:0 634:0 635:0 636:0 637:0 638:0 639:0 640:0 641:0 642:0 643:0 644:0 645:0 646:0 647:0 648:0 649:0 650:0 651:0 652:0 653:0 654:0 655:0 656:1 657:0 658:0 659:0 660:0 661:0 662:0 663:0 664:0 665:0 666:0 667:0 668:0 669:0 670:0 671:0 672:0 673:0 674:0 675:0 676:0 677:0 678:0 679:0 680:0 681:0 682:0 683:0 684:0 685:0 686:0 687:0 688:0 689:0 690:0 691:0 692:0 693:0 694:0 695:0 696:0 697:0 698:0 699:0 700:0 701:0 702:0 703:0 704:0 705:0 706:0 707:0 708:0 709:0 710:0 711:0 712:0 713:0 714:0 715:0 716:0 717:0 718:0 719:0 720:0 721:0 722:0 723:0 724:0 725:0 726:0 727:0 728:0 729:0 730:0 731:0 732:0 733:0 734:0 735:0 736:0 737:0 738:0 739:0 740:0 741:0 742:0 743:0 744:0 745:0 746:0 747:0 748:0 749:0 750:0 751:0 752:0 753:0 754:0 755:0 756:0 757:0 758:0 759:0 760:0 761:0 762:0 763:0 764:0 765:0 766:0 767:0 768:0 769:0 770:0 771:0 772:0 773:0 774:0 775:0 776:0 777:0 778:0 779:0 780:0 781:0 782:0 783:0 784:0 785:0 786:0 787:0 788:0 789:0 790:0 791:0 792:0 793:0 794:0 795:0 796:0 797:0 798:0 799:0 800:0 801:0 802:0 803:0 804:1 805:0 806:0 807:0 808:0 809:1 810:0 811:0 812:0 813:0 814:0 815:0 816:0 817:0 818:0 819:0 820:0 821:0 822:0 823:0 824:0 825:0 826:0 827:0 828:0 829:0 830:0 831:0 832:0 833:0 834:0 835:0 836:0 837:0 838:0 839:0 840:0 841:0 842:0 843:0 844:0 845:0 846:0 847:0 848:0 849:0 850:0 851:0 852:0 853:0 854:0 855:0 856:0 857:0 858:0 859:0 860:0 861:0 862:0 863:0 864:0 865:0 866:0 867:0 868:0 869:0 870:0 871:0 872:0 873:0 874:0 875:0 876:0 877:0 878:0 879:0 880:0 881:0 882:0 883:0 884:0 885:0 886:0 887:0 888:0 889:1 890:0 891:0 892:0 893:0 894:0 895:0 896:0 897:0 898:0 899:0 900:0 901:0 902:0 903:0 904:0 905:0 906:0 907:0 908:0 909:0 910:0 911:0 912:0 913:0 914:0 915:0 916:0 917:0 918:0 919:0 920:0 921:0 922:0 923:0 924:0 925:0 926:0 927:0 928:0 929:0 930:0 931:0 932:0 933:0 934:0 935:0 936:0 937:0 938:0 939:0 940:0 941:0 942:0 943:0 944:0 945:0 946:0 947:0 948:0 949:0 950:0 951:0 952:0 953:0 954:0 955:0 956:0 957:0 958:0 959:0 960:0 961:0 962:0 963:0 964:0 965:0 966:0 967:0 968:0 969:0 970:0 971:0 972:0 973:0 974:0 975:0 976:0 977:0 978:0 979:0 980:0 981:0 982:0 983:0 984:0 985:0 986:1 987:0 988:0 989:0 990:0 991:0 992:0 993:0 994:0 995:0 996:0 997:0 998:0 999:0 1000:0 
